booster[0]:
0:[f6828<-9.53674316e-07] yes=1,no=2,missing=1
	1:[f396<-9.53674316e-07] yes=3,no=4,missing=3
		3:[f99682<-9.53674316e-07] yes=7,no=8,missing=7
			7:[f99676<-9.53674316e-07] yes=15,no=16,missing=15
				15:[f71<-9.53674316e-07] yes=27,no=28,missing=27
					27:[f99670<-9.53674316e-07] yes=47,no=48,missing=47
						47:[f99684<-9.53674316e-07] yes=73,no=74,missing=73
							73:[f6476<-9.53674316e-07] yes=99,no=100,missing=99
								99:leaf=0.0858622491
								100:leaf=0.053409107
							74:[f1681<-9.53674316e-07] yes=101,no=102,missing=101
								101:[f12387<-9.53674316e-07] yes=119,no=120,missing=119
									119:leaf=0.0720370933
									120:leaf=0.0178006329
								102:leaf=-0.00904810242
						48:[f9978<-9.53674316e-07] yes=75,no=76,missing=75
							75:[f7338<-9.53674316e-07] yes=103,no=104,missing=103
								103:leaf=0.0672018453
								104:leaf=0.0169709288
							76:leaf=-0.00939197466
					28:leaf=0.010569117
				16:[f12738<-9.53674316e-07] yes=29,no=30,missing=29
					29:[f7443<-9.53674316e-07] yes=49,no=50,missing=49
						49:leaf=0.0710480884
						50:[f5<-9.53674316e-07] yes=77,no=78,missing=77
							77:leaf=0.0297471676
							78:leaf=0.00789369177
					30:leaf=-0.0325565003
			8:[f590<-9.53674316e-07] yes=17,no=18,missing=17
				17:[f6980<-9.53674316e-07] yes=31,no=32,missing=31
					31:[f12387<-9.53674316e-07] yes=51,no=52,missing=51
						51:[f16788<-9.53674316e-07] yes=79,no=80,missing=79
							79:leaf=0.0669336393
							80:leaf=0.0173272546
						52:leaf=0.0108214263
					32:[f2136<-9.53674316e-07] yes=53,no=54,missing=53
						53:leaf=-0.0115301302
						54:leaf=0.0323511995
				18:leaf=-0.0223150291
		4:[f99679<-9.53674316e-07] yes=9,no=10,missing=9
			9:[f99677<-9.53674316e-07] yes=19,no=20,missing=19
				19:[f99676<-9.53674316e-07] yes=33,no=34,missing=33
					33:[f99671<-9.53674316e-07] yes=55,no=56,missing=55
						55:[f99666<-9.53674316e-07] yes=81,no=82,missing=81
							81:[f99681<-9.53674316e-07] yes=105,no=106,missing=105
								105:[f136<-9.53674316e-07] yes=121,no=122,missing=121
									121:[f99683<-9.53674316e-07] yes=135,no=136,missing=135
										135:[f99682<-9.53674316e-07] yes=151,no=152,missing=151
											151:[f22<-9.53674316e-07] yes=171,no=172,missing=171
												171:[f99670<-9.53674316e-07] yes=189,no=190,missing=189
													189:leaf=-0.0402258746
													190:[f834<-9.53674316e-07] yes=203,no=204,missing=203
														203:leaf=0.0134365261
														204:[f46<-9.53674316e-07] yes=217,no=218,missing=217
															217:leaf=-0.0209746566
															218:leaf=-0.00258497824
												172:leaf=0.0200236104
											152:[f439<-9.53674316e-07] yes=173,no=174,missing=173
												173:leaf=0.0426319279
												174:[f9<-9.53674316e-07] yes=191,no=192,missing=191
													191:leaf=0.00551279634
													192:[f834<-9.53674316e-07] yes=205,no=206,missing=205
														205:leaf=0.00551279634
														206:leaf=-0.00336700655
										136:[f1857<-9.53674316e-07] yes=153,no=154,missing=153
											153:[f834<-9.53674316e-07] yes=175,no=176,missing=175
												175:leaf=0.013606783
												176:leaf=0.0401912034
											154:leaf=-0.0297667775
									122:[f99678<-9.53674316e-07] yes=137,no=138,missing=137
										137:[f99675<-9.53674316e-07] yes=155,no=156,missing=155
											155:[f9<-9.53674316e-07] yes=177,no=178,missing=177
												177:leaf=0.0176740866
												178:leaf=-0.0245058183
											156:leaf=0.0489354394
										138:leaf=0.0520143881
								106:[f20<-9.53674316e-07] yes=123,no=124,missing=123
									123:leaf=-0.00269926921
									124:leaf=0.0492097475
							82:leaf=0.0673194602
						56:leaf=0.0618258938
					34:[f282<-9.53674316e-07] yes=57,no=58,missing=57
						57:leaf=0.0822347552
						58:leaf=-0.0282429364
				20:leaf=0.077399537
			10:leaf=0.0811905414
	2:[f9808<-9.53674316e-07] yes=5,no=6,missing=5
		5:[f4812<-9.53674316e-07] yes=11,no=12,missing=11
			11:[f99676<-9.53674316e-07] yes=21,no=22,missing=21
				21:[f99678<-9.53674316e-07] yes=35,no=36,missing=35
					35:[f99666<-9.53674316e-07] yes=59,no=60,missing=59
						59:[f99675<-9.53674316e-07] yes=83,no=84,missing=83
							83:[f99683<-9.53674316e-07] yes=107,no=108,missing=107
								107:[f12505<-9.53674316e-07] yes=125,no=126,missing=125
									125:[f99670<-9.53674316e-07] yes=139,no=140,missing=139
										139:[f99672<-9.53674316e-07] yes=157,no=158,missing=157
											157:[f99684<-9.53674316e-07] yes=179,no=180,missing=179
												179:[f99677<-9.53674316e-07] yes=193,no=194,missing=193
													193:[f99679<-9.53674316e-07] yes=207,no=208,missing=207
														207:[f99668<-9.53674316e-07] yes=219,no=220,missing=219
															219:[f99669<-9.53674316e-07] yes=229,no=230,missing=229
																229:leaf=0.00263952883
																230:leaf=-0.036782302
															220:[f3579<-9.53674316e-07] yes=231,no=232,missing=231
																231:leaf=-0.00782056618
																232:leaf=0.0238357615
														208:[f14588<-9.53674316e-07] yes=221,no=222,missing=221
															221:leaf=0.0572478957
															222:[f5409<-9.53674316e-07] yes=233,no=234,missing=233
																233:leaf=0.017729748
																234:leaf=-0.0246941708
													194:[f221<-9.53674316e-07] yes=209,no=210,missing=209
														209:[f489<-9.53674316e-07] yes=223,no=224,missing=223
															223:[f51<-9.53674316e-07] yes=235,no=236,missing=235
																235:leaf=-0.00722854072
																236:leaf=0.0223276932
															224:leaf=-0.0163368974
														210:leaf=0.0542695783
												180:[f6418<-9.53674316e-07] yes=195,no=196,missing=195
													195:leaf=-0.0166811645
													196:[f5110<-9.53674316e-07] yes=211,no=212,missing=211
														211:leaf=0.0274740942
														212:leaf=0.0598060377
											158:leaf=-0.0310493447
										140:[f97708<-9.53674316e-07] yes=159,no=160,missing=159
											159:[f1<-9.53674316e-07] yes=181,no=182,missing=181
												181:leaf=-0.00258497824
												182:leaf=-0.0250473488
											160:leaf=0.0443602726
									126:[f99670<-9.53674316e-07] yes=141,no=142,missing=141
										141:[f99668<-9.53674316e-07] yes=161,no=162,missing=161
											161:[f5812<-9.53674316e-07] yes=183,no=184,missing=183
												183:[f9754<-9.53674316e-07] yes=197,no=198,missing=197
													197:[f99671<-9.53674316e-07] yes=213,no=214,missing=213
														213:[f99679<-9.53674316e-07] yes=225,no=226,missing=225
															225:[f99677<-9.53674316e-07] yes=237,no=238,missing=237
																237:leaf=0.0311060064
																238:leaf=0.0594048612
															226:leaf=0.0676293746
														214:leaf=0.0662547499
													198:leaf=-0.00978290848
												184:leaf=-0.0115366904
											162:[f966<-9.53674316e-07] yes=185,no=186,missing=185
												185:leaf=-0.00774669182
												186:leaf=0.0226193294
										142:[f6552<-9.53674316e-07] yes=163,no=164,missing=163
											163:leaf=-0.0143853547
											164:leaf=0.0135351429
								108:[f32579<-9.53674316e-07] yes=127,no=128,missing=127
									127:leaf=0.0644595399
									128:[f508<-9.53674316e-07] yes=143,no=144,missing=143
										143:[f101<-9.53674316e-07] yes=165,no=166,missing=165
											165:leaf=-0.0288232174
											166:leaf=-0.0062761521
										144:leaf=0.0245343409
							84:[f1079<-9.53674316e-07] yes=109,no=110,missing=109
								109:leaf=-0.0420129709
								110:leaf=0.00382401235
						60:[f1967<-9.53674316e-07] yes=85,no=86,missing=85
							85:leaf=0.0753011778
							86:leaf=-0.00670741405
					36:[f22332<-9.53674316e-07] yes=61,no=62,missing=61
						61:leaf=-0.0405402146
						62:leaf=0.0365694873
				22:[f9878<-9.53674316e-07] yes=37,no=38,missing=37
					37:[f6501<-9.53674316e-07] yes=63,no=64,missing=63
						63:[f1212<-9.53674316e-07] yes=87,no=88,missing=87
							87:leaf=0.0212289728
							88:[f11266<-9.53674316e-07] yes=111,no=112,missing=111
								111:leaf=-0.033336401
								112:[f31298<-9.53674316e-07] yes=129,no=130,missing=129
									129:[f590<-9.53674316e-07] yes=145,no=146,missing=145
										145:leaf=0.0268735737
										146:leaf=-0.00865786709
									130:leaf=-0.012942574
						64:[f42<-9.53674316e-07] yes=89,no=90,missing=89
							89:[f8271<-9.53674316e-07] yes=113,no=114,missing=113
								113:leaf=-0.00865786709
								114:leaf=0.0212289728
							90:leaf=0.0160294492
					38:[f233<-9.53674316e-07] yes=65,no=66,missing=65
						65:leaf=0.0313069224
						66:leaf=0.00254304428
			12:[f9552<-9.53674316e-07] yes=23,no=24,missing=23
				23:[f11307<-9.53674316e-07] yes=39,no=40,missing=39
					39:[f7850<-9.53674316e-07] yes=67,no=68,missing=67
						67:[f5<-9.53674316e-07] yes=91,no=92,missing=91
							91:leaf=0.025614325
							92:leaf=0.000534715364
						68:[f99682<-9.53674316e-07] yes=93,no=94,missing=93
							93:leaf=0.0844127238
							94:leaf=0.0233692992
					40:leaf=-0.0224580858
				24:[f4097<-9.53674316e-07] yes=41,no=42,missing=41
					41:leaf=0.0673054606
					42:[f1<-9.53674316e-07] yes=69,no=70,missing=69
						69:leaf=-0.0359555744
						70:[f30<-9.53674316e-07] yes=95,no=96,missing=95
							95:leaf=0.0449822992
							96:leaf=0.00540491845
		6:[f99676<-9.53674316e-07] yes=13,no=14,missing=13
			13:[f99682<-9.53674316e-07] yes=25,no=26,missing=25
				25:[f99683<-9.53674316e-07] yes=43,no=44,missing=43
					43:[f1565<-9.53674316e-07] yes=71,no=72,missing=71
						71:[f676<-9.53674316e-07] yes=97,no=98,missing=97
							97:[f10277<-9.53674316e-07] yes=115,no=116,missing=115
								115:[f521<-9.53674316e-07] yes=131,no=132,missing=131
									131:leaf=-0.0431179479
									132:leaf=-0.0102119185
								116:[f9<-9.53674316e-07] yes=133,no=134,missing=133
									133:[f99681<-9.53674316e-07] yes=147,no=148,missing=147
										147:[f99666<-9.53674316e-07] yes=167,no=168,missing=167
											167:[f11886<-9.53674316e-07] yes=187,no=188,missing=187
												187:[f99679<-9.53674316e-07] yes=199,no=200,missing=199
													199:leaf=-0.0408230163
													200:leaf=-0.0129418718
												188:[f99675<-9.53674316e-07] yes=201,no=202,missing=201
													201:[f291<-9.53674316e-07] yes=215,no=216,missing=215
														215:[f99668<-9.53674316e-07] yes=227,no=228,missing=227
															227:[f99679<-9.53674316e-07] yes=239,no=240,missing=239
																239:leaf=-0.0235083867
																240:leaf=-0.0182461552
															228:leaf=-0.0132667357
														216:leaf=-0.00874970667
													202:leaf=-0.0353045911
											168:leaf=-0.0361302346
										148:leaf=-0.0099111842
									134:[f99670<-9.53674316e-07] yes=149,no=150,missing=149
										149:[f99684<-9.53674316e-07] yes=169,no=170,missing=169
											169:leaf=-0.0216458328
											170:leaf=0.0129226269
										150:leaf=0.0310892351
							98:[f9<-9.53674316e-07] yes=117,no=118,missing=117
								117:leaf=-0.037387535
								118:leaf=0.068895407
						72:leaf=0.0359700359
					44:leaf=-0.0403160714
				26:[f676<-9.53674316e-07] yes=45,no=46,missing=45
					45:leaf=0.0694877654
					46:leaf=-0.00631842483
			14:leaf=0.0834822506
booster[1]:
0:leaf=-0.0468394831
booster[2]:
0:[f6828<-9.53674316e-07] yes=1,no=2,missing=1
	1:[f396<-9.53674316e-07] yes=3,no=4,missing=3
		3:[f99682<-9.53674316e-07] yes=7,no=8,missing=7
			7:[f12738<-9.53674316e-07] yes=15,no=16,missing=15
				15:[f71<-9.53674316e-07] yes=29,no=30,missing=29
					29:[f99670<-9.53674316e-07] yes=51,no=52,missing=51
						51:[f99684<-9.53674316e-07] yes=79,no=80,missing=79
							79:[f99676<-9.53674316e-07] yes=111,no=112,missing=111
								111:[f12387<-9.53674316e-07] yes=131,no=132,missing=131
									131:[f10006<-9.53674316e-07] yes=147,no=148,missing=147
										147:leaf=-0.0419737995
										148:leaf=-0.0228498373
									132:[f99681<-9.53674316e-07] yes=149,no=150,missing=149
										149:leaf=-0.0304686446
										150:leaf=-0.0113229584
								112:[f7443<-9.53674316e-07] yes=133,no=134,missing=133
									133:[f3700<-9.53674316e-07] yes=151,no=152,missing=151
										151:leaf=-0.00607915781
										152:[f12514<-9.53674316e-07] yes=171,no=172,missing=171
											171:leaf=-0.00607915781
											172:leaf=-0.0375521183
									134:[f5<-9.53674316e-07] yes=153,no=154,missing=153
										153:leaf=-0.00607915781
										154:leaf=0.01889202
							80:[f2259<-9.53674316e-07] yes=113,no=114,missing=113
								113:[f12387<-9.53674316e-07] yes=135,no=136,missing=135
									135:[f3483<-9.53674316e-07] yes=155,no=156,missing=155
										155:leaf=-0.0101403091
										156:leaf=-0.0363301001
									136:leaf=0.00830695964
								114:leaf=0.0280431211
						52:[f10824<-9.53674316e-07] yes=81,no=82,missing=81
							81:[f569<-9.53674316e-07] yes=115,no=116,missing=115
								115:leaf=-0.0347672664
								116:leaf=-0.00925840158
							82:leaf=0.0329412557
					30:leaf=0.0127895521
				16:[f99676<-9.53674316e-07] yes=31,no=32,missing=31
					31:[f99684<-9.53674316e-07] yes=53,no=54,missing=53
						53:[f63<-9.53674316e-07] yes=83,no=84,missing=83
							83:[f99678<-9.53674316e-07] yes=117,no=118,missing=117
								117:[f99671<-9.53674316e-07] yes=137,no=138,missing=137
									137:leaf=-0.00218149484
									138:leaf=-0.0130934622
								118:leaf=-0.0257127415
							84:leaf=-0.026089387
						54:leaf=0.00830695964
					32:leaf=0.0651129931
			8:[f9818<-9.53674316e-07] yes=17,no=18,missing=17
				17:leaf=0.0507900678
				18:[f5812<-9.53674316e-07] yes=33,no=34,missing=33
					33:[f5253<-9.53674316e-07] yes=55,no=56,missing=55
						55:[f22<-9.53674316e-07] yes=85,no=86,missing=85
							85:leaf=-0.00813816208
							86:leaf=-0.0292792805
						56:leaf=0.00719319517
					34:[f0<-9.53674316e-07] yes=57,no=58,missing=57
						57:leaf=0.0292858481
						58:leaf=-0.00175760651
		4:[f99679<-9.53674316e-07] yes=9,no=10,missing=9
			9:[f99677<-9.53674316e-07] yes=19,no=20,missing=19
				19:[f99676<-9.53674316e-07] yes=35,no=36,missing=35
					35:[f99671<-9.53674316e-07] yes=59,no=60,missing=59
						59:[f99666<-9.53674316e-07] yes=87,no=88,missing=87
							87:[f99681<-9.53674316e-07] yes=119,no=120,missing=119
								119:[f136<-9.53674316e-07] yes=139,no=140,missing=139
									139:[f99683<-9.53674316e-07] yes=157,no=158,missing=157
										157:[f99682<-9.53674316e-07] yes=173,no=174,missing=173
											173:[f22<-9.53674316e-07] yes=189,no=190,missing=189
												189:leaf=0.07633733
												190:leaf=0.00465769134
											174:[f439<-9.53674316e-07] yes=191,no=192,missing=191
												191:leaf=-0.0146243302
												192:leaf=0.0418876074
										158:[f379<-9.53674316e-07] yes=175,no=176,missing=175
											175:leaf=0.055539161
											176:[f834<-9.53674316e-07] yes=193,no=194,missing=193
												193:leaf=0.014716031
												194:[f46<-9.53674316e-07] yes=209,no=210,missing=209
													209:leaf=-0.013429353
													210:leaf=0.00816783961
									140:[f99678<-9.53674316e-07] yes=159,no=160,missing=159
										159:[f99675<-9.53674316e-07] yes=177,no=178,missing=177
											177:[f9<-9.53674316e-07] yes=195,no=196,missing=195
												195:leaf=0.0104066264
												196:leaf=0.0605069064
											178:leaf=-0.0221497286
										160:leaf=-0.0220143907
								120:[f20<-9.53674316e-07] yes=141,no=142,missing=141
									141:leaf=0.0280946624
									142:[f704<-9.53674316e-07] yes=161,no=162,missing=161
										161:leaf=-0.0149315819
										162:leaf=-0.00397387892
							88:leaf=-0.0336597338
						60:[f125<-9.53674316e-07] yes=89,no=90,missing=89
							89:[f508<-9.53674316e-07] yes=121,no=122,missing=121
								121:leaf=-0.0327894315
								122:leaf=-0.0142979706
							90:leaf=0.00096044282
					36:[f282<-9.53674316e-07] yes=61,no=62,missing=61
						61:[f1005<-9.53674316e-07] yes=91,no=92,missing=91
							91:leaf=-0.0421031006
							92:leaf=-0.012590494
						62:leaf=0.0564858653
				20:[f1761<-9.53674316e-07] yes=37,no=38,missing=37
					37:leaf=-0.0377631187
					38:leaf=-0.0053990595
			10:[f282<-9.53674316e-07] yes=21,no=22,missing=21
				21:leaf=-0.0418378413
				22:leaf=-0.0090667326
	2:[f9808<-9.53674316e-07] yes=5,no=6,missing=5
		5:[f4812<-9.53674316e-07] yes=11,no=12,missing=11
			11:[f99676<-9.53674316e-07] yes=23,no=24,missing=23
				23:[f99678<-9.53674316e-07] yes=39,no=40,missing=39
					39:[f99666<-9.53674316e-07] yes=63,no=64,missing=63
						63:[f99675<-9.53674316e-07] yes=93,no=94,missing=93
							93:[f99683<-9.53674316e-07] yes=123,no=124,missing=123
								123:[f12505<-9.53674316e-07] yes=143,no=144,missing=143
									143:[f99670<-9.53674316e-07] yes=163,no=164,missing=163
										163:[f99684<-9.53674316e-07] yes=179,no=180,missing=179
											179:[f99677<-9.53674316e-07] yes=197,no=198,missing=197
												197:[f99679<-9.53674316e-07] yes=211,no=212,missing=211
													211:[f99668<-9.53674316e-07] yes=223,no=224,missing=223
														223:[f290<-9.53674316e-07] yes=235,no=236,missing=235
															235:[f7607<-9.53674316e-07] yes=251,no=252,missing=251
																251:leaf=0.0489174612
																252:leaf=0.0112418327
															236:[f99681<-9.53674316e-07] yes=253,no=254,missing=253
																253:leaf=0.0358914584
																254:leaf=0.0149265686
														224:[f21527<-9.53674316e-07] yes=237,no=238,missing=237
															237:[f31298<-9.53674316e-07] yes=255,no=256,missing=255
																255:leaf=0.0528030097
																256:leaf=0.0222626664
															238:leaf=-0.0100150788
													212:[f14588<-9.53674316e-07] yes=225,no=226,missing=225
														225:leaf=-0.0203190669
														226:[f97708<-9.53674316e-07] yes=239,no=240,missing=239
															239:[f5<-9.53674316e-07] yes=257,no=258,missing=257
																257:leaf=0.0352271162
																258:leaf=-0.015860524
															240:leaf=0.0304728877
												198:[f221<-9.53674316e-07] yes=213,no=214,missing=213
													213:[f489<-9.53674316e-07] yes=227,no=228,missing=227
														227:[f7870<-9.53674316e-07] yes=241,no=242,missing=241
															241:[f1<-9.53674316e-07] yes=259,no=260,missing=259
																259:leaf=0.01481908
																260:leaf=-0.0053990595
															242:[f9<-9.53674316e-07] yes=261,no=262,missing=261
																261:leaf=0.0263857506
																262:leaf=0.0147556355
														228:leaf=0.0476964153
													214:leaf=-0.0160760861
											180:[f5110<-9.53674316e-07] yes=199,no=200,missing=199
												199:[f6418<-9.53674316e-07] yes=215,no=216,missing=215
													215:leaf=0.0488786027
													216:[f31766<-9.53674316e-07] yes=229,no=230,missing=229
														229:[f231<-9.53674316e-07] yes=243,no=244,missing=243
															243:leaf=0.0317764468
															244:leaf=0.018102726
														230:[f9<-9.53674316e-07] yes=245,no=246,missing=245
															245:leaf=-0.0144077586
															246:[f11938<-9.53674316e-07] yes=263,no=264,missing=263
																263:leaf=0.000717838004
																264:leaf=0.0116554024
												200:leaf=-0.0299030226
										164:[f97708<-9.53674316e-07] yes=181,no=182,missing=181
											181:leaf=0.0589624085
											182:[f42<-9.53674316e-07] yes=201,no=202,missing=201
												201:leaf=-0.0179142561
												202:[f231<-9.53674316e-07] yes=217,no=218,missing=217
													217:leaf=0.022715902
													218:leaf=0.000553427439
									144:[f99671<-9.53674316e-07] yes=165,no=166,missing=165
										165:[f99679<-9.53674316e-07] yes=183,no=184,missing=183
											183:[f99677<-9.53674316e-07] yes=203,no=204,missing=203
												203:[f221<-9.53674316e-07] yes=219,no=220,missing=219
													219:leaf=0.0565905161
													220:[f99682<-9.53674316e-07] yes=231,no=232,missing=231
														231:[f99684<-9.53674316e-07] yes=247,no=248,missing=247
															247:[f1693<-9.53674316e-07] yes=265,no=266,missing=265
																265:leaf=-0.000693444454
																266:leaf=0.0360422097
															248:[f5<-9.53674316e-07] yes=267,no=268,missing=267
																267:leaf=0.0572014228
																268:leaf=-0.00511996821
														232:[f966<-9.53674316e-07] yes=249,no=250,missing=249
															249:[f622<-9.53674316e-07] yes=269,no=270,missing=269
																269:leaf=-0.0305536222
																270:leaf=-0.00650068792
															250:leaf=0.0392595865
												204:[f1693<-9.53674316e-07] yes=221,no=222,missing=221
													221:leaf=-0.0372555517
													222:[f622<-9.53674316e-07] yes=233,no=234,missing=233
														233:leaf=0.0103175538
														234:leaf=-0.00147941033
											184:[f945<-9.53674316e-07] yes=205,no=206,missing=205
												205:leaf=-0.0380623117
												206:leaf=-0.00818325672
										166:[f4919<-9.53674316e-07] yes=185,no=186,missing=185
											185:leaf=-0.037058007
											186:leaf=-0.00671168184
								124:[f32579<-9.53674316e-07] yes=145,no=146,missing=145
									145:[f4432<-9.53674316e-07] yes=167,no=168,missing=167
										167:[f329<-9.53674316e-07] yes=187,no=188,missing=187
											187:leaf=-0.0310368706
											188:[f1<-9.53674316e-07] yes=207,no=208,missing=207
												207:leaf=-0.026093442
												208:leaf=-0.002804433
										168:leaf=-0.0155167906
									146:[f508<-9.53674316e-07] yes=169,no=170,missing=169
										169:leaf=0.07201951
										170:leaf=0.000436552393
							94:[f1079<-9.53674316e-07] yes=125,no=126,missing=125
								125:leaf=0.0840259269
								126:leaf=0.0286184195
						64:[f1079<-9.53674316e-07] yes=95,no=96,missing=95
							95:[f29721<-9.53674316e-07] yes=127,no=128,missing=127
								127:leaf=-5.46068004e-05
								128:leaf=-0.0362470262
							96:leaf=0.0220656004
					40:[f22332<-9.53674316e-07] yes=65,no=66,missing=65
						65:leaf=0.0845552981
						66:leaf=-0.00765853422
				24:[f9878<-9.53674316e-07] yes=41,no=42,missing=41
					41:[f6501<-9.53674316e-07] yes=67,no=68,missing=67
						67:[f1212<-9.53674316e-07] yes=97,no=98,missing=97
							97:leaf=0.00501898956
							98:leaf=0.0602784865
						68:[f8271<-9.53674316e-07] yes=99,no=100,missing=99
							99:leaf=0.0328201801
							100:leaf=0.00501898956
					42:[f2006<-9.53674316e-07] yes=69,no=70,missing=69
						69:leaf=-0.00607915781
						70:leaf=0.0177485105
			12:[f9552<-9.53674316e-07] yes=25,no=26,missing=25
				25:[f11307<-9.53674316e-07] yes=43,no=44,missing=43
					43:[f7850<-9.53674316e-07] yes=71,no=72,missing=71
						71:[f5<-9.53674316e-07] yes=101,no=102,missing=101
							101:leaf=0.00273094745
							102:leaf=0.0302027687
						72:[f99682<-9.53674316e-07] yes=103,no=104,missing=103
							103:[f99668<-9.53674316e-07] yes=129,no=130,missing=129
								129:leaf=-0.0398352034
								130:leaf=-0.0135426242
							104:leaf=0.00645610923
					44:leaf=0.0542980321
				26:[f4097<-9.53674316e-07] yes=45,no=46,missing=45
					45:leaf=-0.0317913443
					46:[f30<-9.53674316e-07] yes=73,no=74,missing=73
						73:leaf=-0.013768319
						74:[f1<-9.53674316e-07] yes=105,no=106,missing=105
							105:leaf=0.0761067793
							106:leaf=0.0221010149
		6:[f99676<-9.53674316e-07] yes=13,no=14,missing=13
			13:[f99682<-9.53674316e-07] yes=27,no=28,missing=27
				27:[f1565<-9.53674316e-07] yes=47,no=48,missing=47
					47:[f676<-9.53674316e-07] yes=75,no=76,missing=75
						75:[f20<-9.53674316e-07] yes=107,no=108,missing=107
							107:leaf=0.005823093
							108:leaf=0.0739579275
						76:[f9<-9.53674316e-07] yes=109,no=110,missing=109
							109:leaf=0.0803833082
							110:leaf=-0.0270229839
					48:leaf=-0.00191654521
				28:[f676<-9.53674316e-07] yes=49,no=50,missing=49
					49:[f11886<-9.53674316e-07] yes=77,no=78,missing=77
						77:leaf=-0.034892641
						78:leaf=-0.021573538
					50:leaf=0.0351522416
			14:leaf=-0.0383807495
booster[3]:
0:[f6828<-9.53674316e-07] yes=1,no=2,missing=1
	1:[f396<-9.53674316e-07] yes=3,no=4,missing=3
		3:[f99682<-9.53674316e-07] yes=7,no=8,missing=7
			7:[f99676<-9.53674316e-07] yes=15,no=16,missing=15
				15:[f71<-9.53674316e-07] yes=29,no=30,missing=29
					29:[f99670<-9.53674316e-07] yes=53,no=54,missing=53
						53:[f99684<-9.53674316e-07] yes=79,no=80,missing=79
							79:leaf=0.0775436014
							80:[f1681<-9.53674316e-07] yes=109,no=110,missing=109
								109:[f12387<-9.53674316e-07] yes=131,no=132,missing=131
									131:[f8036<-9.53674316e-07] yes=151,no=152,missing=151
										151:leaf=0.071218513
										152:leaf=0.0214150902
									132:leaf=0.0170443226
								110:leaf=-0.00910452101
						54:[f9978<-9.53674316e-07] yes=81,no=82,missing=81
							81:[f7662<-9.53674316e-07] yes=111,no=112,missing=111
								111:leaf=0.0629850402
								112:leaf=0.0162424054
							82:leaf=-0.0095371278
					30:leaf=0.0100072408
				16:[f12738<-9.53674316e-07] yes=31,no=32,missing=31
					31:[f7443<-9.53674316e-07] yes=55,no=56,missing=55
						55:leaf=0.0661843345
						56:[f5<-9.53674316e-07] yes=83,no=84,missing=83
							83:leaf=0.028593773
							84:leaf=0.00748143764
					32:leaf=-0.0319511965
			8:[f2190<-9.53674316e-07] yes=17,no=18,missing=17
				17:[f4564<-9.53674316e-07] yes=33,no=34,missing=33
					33:[f12387<-9.53674316e-07] yes=57,no=58,missing=57
						57:[f5253<-9.53674316e-07] yes=85,no=86,missing=85
							85:leaf=0.0627972856
							86:leaf=0.0162657686
						58:leaf=0.0101852482
					34:leaf=-0.0112986844
				18:leaf=-0.0220604129
		4:[f99670<-9.53674316e-07] yes=9,no=10,missing=9
			9:[f99684<-9.53674316e-07] yes=19,no=20,missing=19
				19:[f99682<-9.53674316e-07] yes=35,no=36,missing=35
					35:[f440<-9.53674316e-07] yes=59,no=60,missing=59
						59:[f99668<-9.53674316e-07] yes=87,no=88,missing=87
							87:[f99678<-9.53674316e-07] yes=113,no=114,missing=113
								113:[f99683<-9.53674316e-07] yes=133,no=134,missing=133
									133:[f99675<-9.53674316e-07] yes=153,no=154,missing=153
										153:leaf=0.0659544989
										154:[f5<-9.53674316e-07] yes=173,no=174,missing=173
											173:leaf=-0.0244235899
											174:leaf=0.04778447
									134:[f4875<-9.53674316e-07] yes=155,no=156,missing=155
										155:leaf=-0.0249075145
										156:[f834<-9.53674316e-07] yes=175,no=176,missing=175
											175:leaf=0.0129776951
											176:leaf=0.0439760089
								114:[f290<-9.53674316e-07] yes=135,no=136,missing=135
									135:leaf=-0.0304081459
									136:leaf=0.0537834205
							88:leaf=-0.0296204295
						60:[f99677<-9.53674316e-07] yes=89,no=90,missing=89
							89:[f99679<-9.53674316e-07] yes=115,no=116,missing=115
								115:[f99671<-9.53674316e-07] yes=137,no=138,missing=137
									137:[f22<-9.53674316e-07] yes=157,no=158,missing=157
										157:leaf=-0.0309228469
										158:leaf=-0.00107572449
									138:leaf=0.0290713105
								116:leaf=0.0327673182
							90:leaf=0.0389470533
					36:[f439<-9.53674316e-07] yes=61,no=62,missing=61
						61:leaf=0.044600606
						62:[f379<-9.53674316e-07] yes=91,no=92,missing=91
							91:leaf=-0.0250690766
							92:[f9<-9.53674316e-07] yes=117,no=118,missing=117
								117:leaf=0.00537128514
								118:[f834<-9.53674316e-07] yes=139,no=140,missing=139
									139:leaf=0.00537128514
									140:leaf=-0.0018251806
				20:[f6612<-9.53674316e-07] yes=37,no=38,missing=37
					37:leaf=-0.0286625177
					38:leaf=0.0212461073
			10:[f834<-9.53674316e-07] yes=21,no=22,missing=21
				21:leaf=0.0135005591
				22:[f9257<-9.53674316e-07] yes=39,no=40,missing=39
					39:leaf=-0.0288202669
					40:[f1692<-9.53674316e-07] yes=63,no=64,missing=63
						63:leaf=0.00748682115
						64:leaf=-0.0159140844
	2:[f9808<-9.53674316e-07] yes=5,no=6,missing=5
		5:[f4812<-9.53674316e-07] yes=11,no=12,missing=11
			11:[f99676<-9.53674316e-07] yes=23,no=24,missing=23
				23:[f99678<-9.53674316e-07] yes=41,no=42,missing=41
					41:[f99666<-9.53674316e-07] yes=65,no=66,missing=65
						65:[f99675<-9.53674316e-07] yes=93,no=94,missing=93
							93:[f99683<-9.53674316e-07] yes=119,no=120,missing=119
								119:[f12505<-9.53674316e-07] yes=141,no=142,missing=141
									141:[f99670<-9.53674316e-07] yes=159,no=160,missing=159
										159:[f99672<-9.53674316e-07] yes=177,no=178,missing=177
											177:[f99669<-9.53674316e-07] yes=191,no=192,missing=191
												191:[f99674<-9.53674316e-07] yes=201,no=202,missing=201
													201:[f99667<-9.53674316e-07] yes=209,no=210,missing=209
														209:[f99673<-9.53674316e-07] yes=215,no=216,missing=215
															215:[f5110<-9.53674316e-07] yes=221,no=222,missing=221
																221:leaf=0.013964857
																222:leaf=0.0497118458
															216:leaf=-0.0350253992
														210:leaf=-0.0353771746
													202:leaf=-0.0358966924
												192:leaf=-0.036225073
											178:leaf=-0.0304814298
										160:[f97708<-9.53674316e-07] yes=179,no=180,missing=179
											179:[f29746<-9.53674316e-07] yes=193,no=194,missing=193
												193:leaf=-0.0245441142
												194:leaf=-0.00226226333
											180:leaf=0.0414219834
									142:[f99670<-9.53674316e-07] yes=161,no=162,missing=161
										161:[f99668<-9.53674316e-07] yes=181,no=182,missing=181
											181:[f5812<-9.53674316e-07] yes=195,no=196,missing=195
												195:[f9754<-9.53674316e-07] yes=203,no=204,missing=203
													203:[f99679<-9.53674316e-07] yes=211,no=212,missing=211
														211:[f99671<-9.53674316e-07] yes=217,no=218,missing=217
															217:[f99677<-9.53674316e-07] yes=223,no=224,missing=223
																223:leaf=0.0292418022
																224:leaf=0.055368565
															218:leaf=0.061507497
														212:leaf=0.0628393143
													204:leaf=-0.0099775847
												196:leaf=-0.0116729653
											182:[f966<-9.53674316e-07] yes=197,no=198,missing=197
												197:leaf=-0.0076671401
												198:leaf=0.0216135569
										162:[f6552<-9.53674316e-07] yes=183,no=184,missing=183
											183:leaf=-0.014357795
											184:leaf=0.0129434625
								120:[f32579<-9.53674316e-07] yes=143,no=144,missing=143
									143:leaf=0.0596743636
									144:[f508<-9.53674316e-07] yes=163,no=164,missing=163
										163:[f101<-9.53674316e-07] yes=185,no=186,missing=185
											185:leaf=-0.0279515274
											186:leaf=-0.00597202871
										164:leaf=0.0235446002
							94:[f1079<-9.53674316e-07] yes=121,no=122,missing=121
								121:leaf=-0.0410674512
								122:leaf=0.00354916812
						66:[f1967<-9.53674316e-07] yes=95,no=96,missing=95
							95:leaf=0.0695827305
							96:leaf=-0.00685491413
					42:[f22332<-9.53674316e-07] yes=67,no=68,missing=67
						67:leaf=-0.0395372659
						68:leaf=0.0348890796
				24:[f9878<-9.53674316e-07] yes=43,no=44,missing=43
					43:[f6501<-9.53674316e-07] yes=69,no=70,missing=69
						69:[f1056<-9.53674316e-07] yes=97,no=98,missing=97
							97:leaf=-0.0360249728
							98:[f7870<-9.53674316e-07] yes=123,no=124,missing=123
								123:leaf=0.0392081067
								124:[f1582<-9.53674316e-07] yes=145,no=146,missing=145
									145:[f21331<-9.53674316e-07] yes=165,no=166,missing=165
										165:leaf=-0.0245868284
										166:leaf=-0.0120823355
									146:[f590<-9.53674316e-07] yes=167,no=168,missing=167
										167:leaf=0.0140402103
										168:leaf=-0.00832363125
						70:[f42<-9.53674316e-07] yes=99,no=100,missing=99
							99:[f8271<-9.53674316e-07] yes=125,no=126,missing=125
								125:leaf=-0.00860933121
								126:leaf=0.0203371644
							100:leaf=0.0153258434
					44:[f233<-9.53674316e-07] yes=71,no=72,missing=71
						71:leaf=0.0295825601
						72:leaf=0.00217888108
			12:[f9552<-9.53674316e-07] yes=25,no=26,missing=25
				25:[f11307<-9.53674316e-07] yes=45,no=46,missing=45
					45:[f7850<-9.53674316e-07] yes=73,no=74,missing=73
						73:[f5<-9.53674316e-07] yes=101,no=102,missing=101
							101:leaf=0.0244843345
							102:leaf=0.000367627828
						74:[f99682<-9.53674316e-07] yes=103,no=104,missing=103
							103:leaf=0.0774959251
							104:leaf=0.0223042481
					46:leaf=-0.022016542
				26:[f4097<-9.53674316e-07] yes=47,no=48,missing=47
					47:leaf=0.0631349161
					48:[f1<-9.53674316e-07] yes=75,no=76,missing=75
						75:leaf=-0.0351027288
						76:[f30<-9.53674316e-07] yes=105,no=106,missing=105
							105:leaf=0.0427147783
							106:leaf=0.00507208845
		6:[f99676<-9.53674316e-07] yes=13,no=14,missing=13
			13:[f99682<-9.53674316e-07] yes=27,no=28,missing=27
				27:[f99683<-9.53674316e-07] yes=49,no=50,missing=49
					49:[f1565<-9.53674316e-07] yes=77,no=78,missing=77
						77:[f676<-9.53674316e-07] yes=107,no=108,missing=107
							107:[f10277<-9.53674316e-07] yes=127,no=128,missing=127
								127:[f521<-9.53674316e-07] yes=147,no=148,missing=147
									147:leaf=-0.0422160327
									148:leaf=-0.00984584726
								128:[f9<-9.53674316e-07] yes=149,no=150,missing=149
									149:[f99681<-9.53674316e-07] yes=169,no=170,missing=169
										169:[f99666<-9.53674316e-07] yes=187,no=188,missing=187
											187:[f11886<-9.53674316e-07] yes=199,no=200,missing=199
												199:[f99679<-9.53674316e-07] yes=205,no=206,missing=205
													205:leaf=-0.0399780013
													206:leaf=-0.012400819
												200:[f99675<-9.53674316e-07] yes=207,no=208,missing=207
													207:[f291<-9.53674316e-07] yes=213,no=214,missing=213
														213:[f99668<-9.53674316e-07] yes=219,no=220,missing=219
															219:[f99679<-9.53674316e-07] yes=225,no=226,missing=225
																225:leaf=-0.0226184484
																226:leaf=-0.0174392611
															220:leaf=-0.0126233334
														214:leaf=-0.00829153508
													208:leaf=-0.0345769562
											188:leaf=-0.0352093726
										170:leaf=-0.00925137289
									150:[f99670<-9.53674316e-07] yes=171,no=172,missing=171
										171:[f99684<-9.53674316e-07] yes=189,no=190,missing=189
											189:leaf=-0.0208480712
											190:leaf=0.0129742697
										172:leaf=0.0306622162
							108:[f9<-9.53674316e-07] yes=129,no=130,missing=129
								129:leaf=-0.0364785902
								130:leaf=0.0645565987
						78:leaf=0.0345625877
					50:leaf=-0.0393894687
				28:[f676<-9.53674316e-07] yes=51,no=52,missing=51
					51:leaf=0.0642678514
					52:leaf=-0.00629485352
			14:leaf=0.0767216682
booster[4]:
0:leaf=-0.0457813255
booster[5]:
0:[f6828<-9.53674316e-07] yes=1,no=2,missing=1
	1:[f396<-9.53674316e-07] yes=3,no=4,missing=3
		3:[f99682<-9.53674316e-07] yes=7,no=8,missing=7
			7:[f12738<-9.53674316e-07] yes=15,no=16,missing=15
				15:[f71<-9.53674316e-07] yes=29,no=30,missing=29
					29:[f941<-9.53674316e-07] yes=51,no=52,missing=51
						51:[f1636<-9.53674316e-07] yes=75,no=76,missing=75
							75:[f2944<-9.53674316e-07] yes=105,no=106,missing=105
								105:[f61<-9.53674316e-07] yes=131,no=132,missing=131
									131:[f90<-9.53674316e-07] yes=147,no=148,missing=147
										147:leaf=-0.0439896323
										148:leaf=-0.0131655717
									132:leaf=-0.0110401781
								106:leaf=-0.0172837973
							76:leaf=-0.00476214942
						52:[f99670<-9.53674316e-07] yes=77,no=78,missing=77
							77:[f99684<-9.53674316e-07] yes=107,no=108,missing=107
								107:[f3205<-9.53674316e-07] yes=133,no=134,missing=133
									133:[f99668<-9.53674316e-07] yes=149,no=150,missing=149
										149:[f99676<-9.53674316e-07] yes=165,no=166,missing=165
											165:[f99674<-9.53674316e-07] yes=185,no=186,missing=185
												185:[f99669<-9.53674316e-07] yes=209,no=210,missing=209
													209:[f99673<-9.53674316e-07] yes=229,no=230,missing=229
														229:[f99672<-9.53674316e-07] yes=243,no=244,missing=243
															243:leaf=-0.0395172872
															244:leaf=-0.0145903248
														230:leaf=-0.00926037971
													210:leaf=-0.00912944786
												186:leaf=-0.00883957464
											166:[f12433<-9.53674316e-07] yes=187,no=188,missing=187
												187:leaf=0.00907226652
												188:[f22977<-9.53674316e-07] yes=211,no=212,missing=211
													211:leaf=-0.00543766562
													212:leaf=-0.0335325822
										150:[f1271<-9.53674316e-07] yes=167,no=168,missing=167
											167:leaf=0.0126183797
											168:leaf=-0.0226245131
									134:leaf=0.00415989617
								108:[f8192<-9.53674316e-07] yes=135,no=136,missing=135
									135:leaf=0.028508747
									136:leaf=-0.0277256146
							78:[f867<-9.53674316e-07] yes=109,no=110,missing=109
								109:leaf=0.0357582197
								110:leaf=0.00245392532
					30:leaf=0.0121937487
				16:[f99676<-9.53674316e-07] yes=31,no=32,missing=31
					31:[f99684<-9.53674316e-07] yes=53,no=54,missing=53
						53:[f63<-9.53674316e-07] yes=79,no=80,missing=79
							79:[f99678<-9.53674316e-07] yes=111,no=112,missing=111
								111:[f99671<-9.53674316e-07] yes=137,no=138,missing=137
									137:leaf=-0.00201687729
									138:leaf=-0.0128537677
								112:leaf=-0.025339039
							80:leaf=-0.0252019204
						54:leaf=0.00807028823
					32:leaf=0.0613935776
			8:[f2190<-9.53674316e-07] yes=17,no=18,missing=17
				17:[f64<-9.53674316e-07] yes=33,no=34,missing=33
					33:[f2882<-9.53674316e-07] yes=55,no=56,missing=55
						55:leaf=0.0490372293
						56:[f648<-9.53674316e-07] yes=81,no=82,missing=81
							81:leaf=-0.025935404
							82:[f15684<-9.53674316e-07] yes=113,no=114,missing=113
								113:leaf=0.0174443927
								114:leaf=-0.00807988457
					34:leaf=-0.0304526389
				18:leaf=0.0516682081
		4:[f99679<-9.53674316e-07] yes=9,no=10,missing=9
			9:[f99677<-9.53674316e-07] yes=19,no=20,missing=19
				19:[f99676<-9.53674316e-07] yes=35,no=36,missing=35
					35:[f99671<-9.53674316e-07] yes=57,no=58,missing=57
						57:[f99666<-9.53674316e-07] yes=83,no=84,missing=83
							83:[f99681<-9.53674316e-07] yes=115,no=116,missing=115
								115:[f136<-9.53674316e-07] yes=139,no=140,missing=139
									139:[f99683<-9.53674316e-07] yes=151,no=152,missing=151
										151:[f99682<-9.53674316e-07] yes=169,no=170,missing=169
											169:[f22<-9.53674316e-07] yes=189,no=190,missing=189
												189:leaf=0.0704329237
												190:leaf=0.00435553025
											170:[f439<-9.53674316e-07] yes=191,no=192,missing=191
												191:leaf=-0.01441151
												192:leaf=0.0392838493
										152:[f379<-9.53674316e-07] yes=171,no=172,missing=171
											171:leaf=0.0526685566
											172:[f834<-9.53674316e-07] yes=193,no=194,missing=193
												193:leaf=0.0140441097
												194:[f46<-9.53674316e-07] yes=213,no=214,missing=213
													213:leaf=-0.0132105853
													214:leaf=0.00796329137
									140:[f99678<-9.53674316e-07] yes=153,no=154,missing=153
										153:[f99675<-9.53674316e-07] yes=173,no=174,missing=173
											173:[f99684<-9.53674316e-07] yes=195,no=196,missing=195
												195:[f9<-9.53674316e-07] yes=215,no=216,missing=215
													215:leaf=0.0160516836
													216:leaf=0.0652107
												196:leaf=-0.00455832109
											174:leaf=-0.0218191799
										154:leaf=-0.0216207914
								116:[f1097<-9.53674316e-07] yes=141,no=142,missing=141
									141:[f300<-9.53674316e-07] yes=155,no=156,missing=155
										155:leaf=-0.0148915322
										156:leaf=-0.00381381135
									142:leaf=0.0273984671
							84:leaf=-0.0330137052
						58:[f136<-9.53674316e-07] yes=85,no=86,missing=85
							85:[f508<-9.53674316e-07] yes=117,no=118,missing=117
								117:leaf=-0.0333805978
								118:leaf=-0.0125719495
							86:leaf=0.00131690968
					36:[f282<-9.53674316e-07] yes=59,no=60,missing=59
						59:[f1005<-9.53674316e-07] yes=87,no=88,missing=87
							87:leaf=-0.0411699787
							88:leaf=-0.0120803593
						60:leaf=0.0537254773
				20:[f1761<-9.53674316e-07] yes=37,no=38,missing=37
					37:leaf=-0.0368607081
					38:leaf=-0.00505209481
			10:[f282<-9.53674316e-07] yes=21,no=22,missing=21
				21:leaf=-0.0409176536
				22:leaf=-0.00861981511
	2:[f9808<-9.53674316e-07] yes=5,no=6,missing=5
		5:[f4812<-9.53674316e-07] yes=11,no=12,missing=11
			11:[f99666<-9.53674316e-07] yes=23,no=24,missing=23
				23:[f99676<-9.53674316e-07] yes=39,no=40,missing=39
					39:[f99678<-9.53674316e-07] yes=61,no=62,missing=61
						61:[f99675<-9.53674316e-07] yes=89,no=90,missing=89
							89:[f99683<-9.53674316e-07] yes=119,no=120,missing=119
								119:[f12505<-9.53674316e-07] yes=143,no=144,missing=143
									143:[f99670<-9.53674316e-07] yes=157,no=158,missing=157
										157:[f99684<-9.53674316e-07] yes=175,no=176,missing=175
											175:[f99677<-9.53674316e-07] yes=197,no=198,missing=197
												197:[f99679<-9.53674316e-07] yes=217,no=218,missing=217
													217:[f99668<-9.53674316e-07] yes=231,no=232,missing=231
														231:[f290<-9.53674316e-07] yes=245,no=246,missing=245
															245:[f43049<-9.53674316e-07] yes=261,no=262,missing=261
																261:leaf=0.0175520275
																262:leaf=0.0459056795
															246:[f99681<-9.53674316e-07] yes=263,no=264,missing=263
																263:leaf=0.0335320756
																264:leaf=0.0137992576
														232:[f21527<-9.53674316e-07] yes=247,no=248,missing=247
															247:[f31298<-9.53674316e-07] yes=265,no=266,missing=265
																265:leaf=0.0507185534
																266:leaf=0.0210507028
															248:leaf=-0.0101316422
													218:[f14588<-9.53674316e-07] yes=233,no=234,missing=233
														233:leaf=-0.0198019799
														234:[f97708<-9.53674316e-07] yes=249,no=250,missing=249
															249:[f5<-9.53674316e-07] yes=267,no=268,missing=267
																267:leaf=0.0341771245
																268:leaf=-0.0158302002
															250:[f51<-9.53674316e-07] yes=269,no=270,missing=269
																269:leaf=0.048281543
																270:leaf=0.0274872649
												198:[f14588<-9.53674316e-07] yes=219,no=220,missing=219
													219:leaf=-0.0156783871
													220:[f834<-9.53674316e-07] yes=235,no=236,missing=235
														235:[f51<-9.53674316e-07] yes=251,no=252,missing=251
															251:leaf=0.0574067309
															252:[f81<-9.53674316e-07] yes=271,no=272,missing=271
																271:leaf=-0.0137245646
																272:leaf=0.0248730462
														236:leaf=-0.00598475244
											176:[f5110<-9.53674316e-07] yes=199,no=200,missing=199
												199:[f6418<-9.53674316e-07] yes=221,no=222,missing=221
													221:leaf=0.0463096686
													222:[f31766<-9.53674316e-07] yes=237,no=238,missing=237
														237:[f231<-9.53674316e-07] yes=253,no=254,missing=253
															253:leaf=0.0304469801
															254:leaf=0.017125668
														238:[f9<-9.53674316e-07] yes=255,no=256,missing=255
															255:leaf=-0.0143284798
															256:[f11938<-9.53674316e-07] yes=273,no=274,missing=273
																273:leaf=0.000559586857
																274:leaf=0.0112395911
												200:leaf=-0.0293948185
										158:[f97708<-9.53674316e-07] yes=177,no=178,missing=177
											177:leaf=0.0552909076
											178:[f42<-9.53674316e-07] yes=201,no=202,missing=201
												201:leaf=-0.017577352
												202:[f231<-9.53674316e-07] yes=223,no=224,missing=223
													223:leaf=0.0219851881
													224:leaf=0.000530282909
									144:[f99671<-9.53674316e-07] yes=159,no=160,missing=159
										159:[f99679<-9.53674316e-07] yes=179,no=180,missing=179
											179:[f99677<-9.53674316e-07] yes=203,no=204,missing=203
												203:[f221<-9.53674316e-07] yes=225,no=226,missing=225
													225:leaf=0.053924486
													226:[f233<-9.53674316e-07] yes=239,no=240,missing=239
														239:[f99682<-9.53674316e-07] yes=257,no=258,missing=257
															257:[f99681<-9.53674316e-07] yes=275,no=276,missing=275
																275:leaf=0.0269702487
																276:leaf=0.00885853171
															258:[f113<-9.53674316e-07] yes=277,no=278,missing=277
																277:leaf=-0.0082250759
																278:leaf=0.0346612148
														240:[f99684<-9.53674316e-07] yes=259,no=260,missing=259
															259:[f99682<-9.53674316e-07] yes=279,no=280,missing=279
																279:leaf=0.0113877952
																280:leaf=-0.0168992095
															260:leaf=-0.0188493617
												204:[f1693<-9.53674316e-07] yes=227,no=228,missing=227
													227:leaf=-0.0365929455
													228:[f622<-9.53674316e-07] yes=241,no=242,missing=241
														241:leaf=0.0102676861
														242:leaf=-0.00129075279
											180:[f945<-9.53674316e-07] yes=205,no=206,missing=205
												205:leaf=-0.0373202935
												206:leaf=-0.00772503112
										160:[f4919<-9.53674316e-07] yes=181,no=182,missing=181
											181:leaf=-0.0362868682
											182:leaf=-0.00627384009
								120:[f32579<-9.53674316e-07] yes=145,no=146,missing=145
									145:[f4432<-9.53674316e-07] yes=161,no=162,missing=161
										161:[f329<-9.53674316e-07] yes=183,no=184,missing=183
											183:leaf=-0.0302844848
											184:[f1<-9.53674316e-07] yes=207,no=208,missing=207
												207:leaf=-0.0256397612
												208:leaf=-0.00251821801
										162:leaf=-0.0148585476
									146:[f508<-9.53674316e-07] yes=163,no=164,missing=163
										163:leaf=0.0666010454
										164:leaf=0.000253406382
							90:[f1079<-9.53674316e-07] yes=121,no=122,missing=121
								121:leaf=0.0775820687
								122:leaf=0.0272275824
						62:[f22332<-9.53674316e-07] yes=91,no=92,missing=91
							91:leaf=0.0778067037
							92:leaf=-0.00759848347
					40:[f9878<-9.53674316e-07] yes=63,no=64,missing=63
						63:[f6501<-9.53674316e-07] yes=93,no=94,missing=93
							93:[f1212<-9.53674316e-07] yes=123,no=124,missing=123
								123:leaf=0.00470136059
								124:leaf=0.0558697805
							94:[f8271<-9.53674316e-07] yes=125,no=126,missing=125
								125:leaf=0.0309126507
								126:leaf=0.00470136059
						64:[f2006<-9.53674316e-07] yes=95,no=96,missing=95
							95:leaf=-0.00614717556
							96:leaf=0.0168508328
				24:[f1079<-9.53674316e-07] yes=41,no=42,missing=41
					41:[f29721<-9.53674316e-07] yes=65,no=66,missing=65
						65:leaf=0.000221463401
						66:leaf=-0.0353327505
					42:leaf=0.0214445461
			12:[f9552<-9.53674316e-07] yes=25,no=26,missing=25
				25:[f11307<-9.53674316e-07] yes=43,no=44,missing=43
					43:[f7850<-9.53674316e-07] yes=67,no=68,missing=67
						67:[f5<-9.53674316e-07] yes=97,no=98,missing=97
							97:leaf=0.0024843791
							98:leaf=0.0287809689
						68:[f99682<-9.53674316e-07] yes=99,no=100,missing=99
							99:[f99668<-9.53674316e-07] yes=127,no=128,missing=127
								127:leaf=-0.0387949832
								128:leaf=-0.0129306624
							100:leaf=0.0060831625
					44:leaf=0.05139843
				26:[f4097<-9.53674316e-07] yes=45,no=46,missing=45
					45:leaf=-0.0311157871
					46:[f30<-9.53674316e-07] yes=69,no=70,missing=69
						69:leaf=-0.0135218669
						70:[f1<-9.53674316e-07] yes=101,no=102,missing=101
							101:leaf=0.0706800595
							102:leaf=0.0211448018
		6:[f99676<-9.53674316e-07] yes=13,no=14,missing=13
			13:[f99682<-9.53674316e-07] yes=27,no=28,missing=27
				27:[f1565<-9.53674316e-07] yes=47,no=48,missing=47
					47:[f20<-9.53674316e-07] yes=71,no=72,missing=71
						71:leaf=0.00510854553
						72:[f676<-9.53674316e-07] yes=103,no=104,missing=103
							103:leaf=0.0681246221
							104:[f9<-9.53674316e-07] yes=129,no=130,missing=129
								129:leaf=0.0743621141
								130:leaf=-0.0263744742
					48:leaf=-0.00206059869
				28:[f676<-9.53674316e-07] yes=49,no=50,missing=49
					49:[f11886<-9.53674316e-07] yes=73,no=74,missing=73
						73:leaf=-0.0342033207
						74:leaf=-0.0207789019
					50:leaf=0.0335479267
			14:leaf=-0.0373545028
booster[6]:
0:[f6828<-9.53674316e-07] yes=1,no=2,missing=1
	1:[f396<-9.53674316e-07] yes=3,no=4,missing=3
		3:[f99682<-9.53674316e-07] yes=7,no=8,missing=7
			7:[f12738<-9.53674316e-07] yes=15,no=16,missing=15
				15:[f71<-9.53674316e-07] yes=27,no=28,missing=27
					27:[f99670<-9.53674316e-07] yes=47,no=48,missing=47
						47:leaf=0.0710915923
						48:[f10824<-9.53674316e-07] yes=71,no=72,missing=71
							71:leaf=0.0589643791
							72:leaf=-0.00226789364
					28:leaf=0.0150337499
				16:[f99676<-9.53674316e-07] yes=29,no=30,missing=29
					29:[f99683<-9.53674316e-07] yes=49,no=50,missing=49
						49:[f99684<-9.53674316e-07] yes=73,no=74,missing=73
							73:leaf=0.0631043687
							74:leaf=0.0155683355
						50:leaf=-0.0253370237
					30:leaf=-0.0313480757
			8:[f9840<-9.53674316e-07] yes=17,no=18,missing=17
				17:[f2395<-9.53674316e-07] yes=31,no=32,missing=31
					31:[f2692<-9.53674316e-07] yes=51,no=52,missing=51
						51:[f0<-9.53674316e-07] yes=75,no=76,missing=75
							75:leaf=0.00100129819
							76:leaf=0.0225829817
						52:[f5253<-9.53674316e-07] yes=77,no=78,missing=77
							77:leaf=0.060864687
							78:leaf=0.0155594358
					32:leaf=0.00257513952
				18:leaf=-0.0218190607
		4:[f99679<-9.53674316e-07] yes=9,no=10,missing=9
			9:[f99677<-9.53674316e-07] yes=19,no=20,missing=19
				19:[f99676<-9.53674316e-07] yes=33,no=34,missing=33
					33:[f99671<-9.53674316e-07] yes=53,no=54,missing=53
						53:[f99666<-9.53674316e-07] yes=79,no=80,missing=79
							79:[f99681<-9.53674316e-07] yes=97,no=98,missing=97
								97:[f136<-9.53674316e-07] yes=111,no=112,missing=111
									111:[f99683<-9.53674316e-07] yes=127,no=128,missing=127
										127:[f99682<-9.53674316e-07] yes=149,no=150,missing=149
											149:[f22<-9.53674316e-07] yes=169,no=170,missing=169
												169:[f99670<-9.53674316e-07] yes=185,no=186,missing=185
													185:leaf=-0.0389171802
													186:[f834<-9.53674316e-07] yes=197,no=198,missing=197
														197:leaf=0.0135819884
														198:[f422<-9.53674316e-07] yes=207,no=208,missing=207
															207:leaf=-0.0195646137
															208:leaf=-0.00204802514
												170:leaf=0.018638853
											150:[f439<-9.53674316e-07] yes=171,no=172,missing=171
												171:leaf=0.0387641862
												172:[f9<-9.53674316e-07] yes=187,no=188,missing=187
													187:leaf=0.00525356038
													188:[f834<-9.53674316e-07] yes=199,no=200,missing=199
														199:leaf=0.00525356038
														200:leaf=-0.00325995358
										128:[f1857<-9.53674316e-07] yes=151,no=152,missing=151
											151:[f834<-9.53674316e-07] yes=173,no=174,missing=173
												173:leaf=0.0123894634
												174:leaf=0.0358958915
											152:leaf=-0.028798731
									112:[f99678<-9.53674316e-07] yes=129,no=130,missing=129
										129:[f99675<-9.53674316e-07] yes=153,no=154,missing=153
											153:[f9<-9.53674316e-07] yes=175,no=176,missing=175
												175:leaf=0.0162573829
												176:leaf=-0.0236202143
											154:leaf=0.0446810909
										130:leaf=0.0470358208
								98:[f1097<-9.53674316e-07] yes=113,no=114,missing=113
									113:[f834<-9.53674316e-07] yes=131,no=132,missing=131
										131:leaf=-0.00122323597
										132:leaf=0.0490221716
									114:leaf=-0.00358880078
							80:leaf=0.0602172799
						54:leaf=0.0536394268
					34:[f282<-9.53674316e-07] yes=55,no=56,missing=55
						55:leaf=0.071044676
						56:leaf=-0.0272986181
				20:leaf=0.0671126246
			10:leaf=0.0703874975
	2:[f9808<-9.53674316e-07] yes=5,no=6,missing=5
		5:[f4812<-9.53674316e-07] yes=11,no=12,missing=11
			11:[f99676<-9.53674316e-07] yes=21,no=22,missing=21
				21:[f99678<-9.53674316e-07] yes=35,no=36,missing=35
					35:[f99675<-9.53674316e-07] yes=57,no=58,missing=57
						57:[f99666<-9.53674316e-07] yes=81,no=82,missing=81
							81:[f99683<-9.53674316e-07] yes=99,no=100,missing=99
								99:[f12505<-9.53674316e-07] yes=115,no=116,missing=115
									115:[f99670<-9.53674316e-07] yes=133,no=134,missing=133
										133:[f99672<-9.53674316e-07] yes=155,no=156,missing=155
											155:[f99669<-9.53674316e-07] yes=177,no=178,missing=177
												177:[f99674<-9.53674316e-07] yes=189,no=190,missing=189
													189:[f99667<-9.53674316e-07] yes=201,no=202,missing=201
														201:[f99673<-9.53674316e-07] yes=209,no=210,missing=209
															209:[f5110<-9.53674316e-07] yes=215,no=216,missing=215
																215:leaf=0.0132876178
																216:leaf=0.0471029468
															210:leaf=-0.0344916098
														202:leaf=-0.0348352157
													190:leaf=-0.0353455395
												178:leaf=-0.0356770195
											156:leaf=-0.0299147777
										134:[f2747<-9.53674316e-07] yes=157,no=158,missing=157
											157:leaf=-0.025281772
											158:leaf=0.0383431911
									116:[f99670<-9.53674316e-07] yes=135,no=136,missing=135
										135:[f99668<-9.53674316e-07] yes=159,no=160,missing=159
											159:[f5812<-9.53674316e-07] yes=179,no=180,missing=179
												179:[f9754<-9.53674316e-07] yes=191,no=192,missing=191
													191:[f99679<-9.53674316e-07] yes=203,no=204,missing=203
														203:[f99671<-9.53674316e-07] yes=211,no=212,missing=211
															211:[f4019<-9.53674316e-07] yes=217,no=218,missing=217
																217:leaf=0.0367792957
																218:leaf=0.00171796908
															212:leaf=0.0573818907
														204:leaf=0.0586802028
													192:leaf=-0.0101759359
												180:leaf=-0.0118293138
											160:[f966<-9.53674316e-07] yes=181,no=182,missing=181
												181:leaf=-0.00764842005
												182:leaf=0.0209226012
										136:[f6552<-9.53674316e-07] yes=161,no=162,missing=161
											161:leaf=-0.0141730364
											162:leaf=0.0122914892
								100:[f32579<-9.53674316e-07] yes=117,no=118,missing=117
									117:leaf=0.0555205531
									118:[f508<-9.53674316e-07] yes=137,no=138,missing=137
										137:[f101<-9.53674316e-07] yes=163,no=164,missing=163
											163:leaf=-0.0270879623
											164:leaf=-0.00565881794
										138:leaf=0.0226087123
							82:[f1967<-9.53674316e-07] yes=101,no=102,missing=101
								101:[f29721<-9.53674316e-07] yes=119,no=120,missing=119
									119:leaf=0.0216867477
									120:[f73<-9.53674316e-07] yes=139,no=140,missing=139
										139:leaf=0.0688142404
										140:leaf=0.0221586078
								102:leaf=-0.00698179798
						58:[f1079<-9.53674316e-07] yes=83,no=84,missing=83
							83:leaf=-0.0401663966
							84:leaf=0.00330715044
					36:[f22332<-9.53674316e-07] yes=59,no=60,missing=59
						59:leaf=-0.0385772474
						60:leaf=0.0333221816
				22:[f9878<-9.53674316e-07] yes=37,no=38,missing=37
					37:[f6501<-9.53674316e-07] yes=61,no=62,missing=61
						61:[f1056<-9.53674316e-07] yes=85,no=86,missing=85
							85:leaf=-0.035411898
							86:[f7870<-9.53674316e-07] yes=103,no=104,missing=103
								103:leaf=0.0381119661
								104:[f1582<-9.53674316e-07] yes=121,no=122,missing=121
									121:[f21331<-9.53674316e-07] yes=141,no=142,missing=141
										141:leaf=-0.0239930004
										142:leaf=-0.011518701
									122:[f590<-9.53674316e-07] yes=143,no=144,missing=143
										143:leaf=0.0137574188
										144:leaf=-0.00797819439
						62:[f42<-9.53674316e-07] yes=87,no=88,missing=87
							87:[f8271<-9.53674316e-07] yes=105,no=106,missing=105
								105:leaf=-0.00854104199
								106:leaf=0.0194956437
							88:leaf=0.0146833714
					38:[f233<-9.53674316e-07] yes=63,no=64,missing=63
						63:leaf=0.0280033704
						64:leaf=0.00184268469
			12:[f9552<-9.53674316e-07] yes=23,no=24,missing=23
				23:[f11307<-9.53674316e-07] yes=39,no=40,missing=39
					39:[f7850<-9.53674316e-07] yes=65,no=66,missing=65
						65:[f5<-9.53674316e-07] yes=89,no=90,missing=89
							89:leaf=0.0234223027
							90:leaf=0.00022891532
						66:[f99682<-9.53674316e-07] yes=91,no=92,missing=91
							91:leaf=0.0717236102
							92:leaf=0.0213053245
					40:leaf=-0.0215627495
				24:[f4097<-9.53674316e-07] yes=41,no=42,missing=41
					41:leaf=0.0594574362
					42:[f1<-9.53674316e-07] yes=67,no=68,missing=67
						67:leaf=-0.034269616
						68:[f30<-9.53674316e-07] yes=93,no=94,missing=93
							93:leaf=0.040628355
							94:leaf=0.00476897461
		6:[f99676<-9.53674316e-07] yes=13,no=14,missing=13
			13:[f99682<-9.53674316e-07] yes=25,no=26,missing=25
				25:[f99683<-9.53674316e-07] yes=43,no=44,missing=43
					43:[f1565<-9.53674316e-07] yes=69,no=70,missing=69
						69:[f676<-9.53674316e-07] yes=95,no=96,missing=95
							95:[f10277<-9.53674316e-07] yes=107,no=108,missing=107
								107:[f521<-9.53674316e-07] yes=123,no=124,missing=123
									123:leaf=-0.0413578153
									124:leaf=-0.00947446004
								108:[f9<-9.53674316e-07] yes=125,no=126,missing=125
									125:[f99681<-9.53674316e-07] yes=145,no=146,missing=145
										145:[f99666<-9.53674316e-07] yes=165,no=166,missing=165
											165:[f11886<-9.53674316e-07] yes=183,no=184,missing=183
												183:[f99679<-9.53674316e-07] yes=193,no=194,missing=193
													193:leaf=-0.0391686745
													194:leaf=-0.0118550267
												184:[f99675<-9.53674316e-07] yes=195,no=196,missing=195
													195:[f99679<-9.53674316e-07] yes=205,no=206,missing=205
														205:[f99677<-9.53674316e-07] yes=213,no=214,missing=213
															213:[f99668<-9.53674316e-07] yes=219,no=220,missing=219
																219:leaf=-0.0234623682
																220:leaf=-0.0124099292
															214:leaf=-0.0171960071
														206:leaf=-0.0162156876
													196:leaf=-0.0338703468
											166:leaf=-0.0343136638
										146:leaf=-0.00858438108
									126:[f99670<-9.53674316e-07] yes=147,no=148,missing=147
										147:[f99684<-9.53674316e-07] yes=167,no=168,missing=167
											167:leaf=-0.0200525429
											168:leaf=0.0130424434
										148:leaf=0.0302721113
							96:[f9<-9.53674316e-07] yes=109,no=110,missing=109
								109:leaf=-0.0355970785
								110:leaf=0.060746856
						70:leaf=0.0332420021
					44:leaf=-0.0384983867
				26:[f676<-9.53674316e-07] yes=45,no=46,missing=45
					45:leaf=0.059771046
					46:leaf=-0.006248469
			14:leaf=0.0710630938
booster[7]:
0:leaf=-0.044814799
booster[8]:
0:[f6828<-9.53674316e-07] yes=1,no=2,missing=1
	1:[f396<-9.53674316e-07] yes=3,no=4,missing=3
		3:[f1681<-9.53674316e-07] yes=7,no=8,missing=7
			7:[f99682<-9.53674316e-07] yes=15,no=16,missing=15
				15:[f71<-9.53674316e-07] yes=29,no=30,missing=29
					29:[f941<-9.53674316e-07] yes=53,no=54,missing=53
						53:[f1636<-9.53674316e-07] yes=79,no=80,missing=79
							79:[f2944<-9.53674316e-07] yes=107,no=108,missing=107
								107:[f61<-9.53674316e-07] yes=129,no=130,missing=129
									129:[f90<-9.53674316e-07] yes=147,no=148,missing=147
										147:leaf=-0.043035835
										148:leaf=-0.0126226405
									130:leaf=-0.010572697
								108:leaf=-0.0165849868
							80:leaf=-0.00431792252
						54:[f99670<-9.53674316e-07] yes=81,no=82,missing=81
							81:[f3205<-9.53674316e-07] yes=109,no=110,missing=109
								109:[f99668<-9.53674316e-07] yes=131,no=132,missing=131
									131:[f99684<-9.53674316e-07] yes=149,no=150,missing=149
										149:[f12514<-9.53674316e-07] yes=167,no=168,missing=167
											167:leaf=-0.0119504472
											168:[f99672<-9.53674316e-07] yes=189,no=190,missing=189
												189:leaf=-0.0377591662
												190:leaf=-0.00953937974
										150:[f13766<-9.53674316e-07] yes=169,no=170,missing=169
											169:leaf=-0.0273366868
											170:leaf=0.0208969545
									132:leaf=-0.000297002844
								110:[f5<-9.53674316e-07] yes=133,no=134,missing=133
									133:leaf=-0.0183488708
									134:leaf=0.00436048955
							82:leaf=0.0147693548
					30:leaf=0.0116374139
				16:[f64<-9.53674316e-07] yes=31,no=32,missing=31
					31:[f11210<-9.53674316e-07] yes=55,no=56,missing=55
						55:leaf=0.0273394585
						56:[f15684<-9.53674316e-07] yes=83,no=84,missing=83
							83:leaf=0.00997355953
							84:leaf=-0.0233261809
					32:leaf=-0.0286914986
			8:[f99682<-9.53674316e-07] yes=17,no=18,missing=17
				17:[f99676<-9.53674316e-07] yes=33,no=34,missing=33
					33:[f99683<-9.53674316e-07] yes=57,no=58,missing=57
						57:[f99684<-9.53674316e-07] yes=85,no=86,missing=85
							85:[f99670<-9.53674316e-07] yes=111,no=112,missing=111
								111:[f99668<-9.53674316e-07] yes=135,no=136,missing=135
									135:leaf=-0.0348817967
									136:leaf=-0.0125769423
								112:leaf=0.0262649115
							86:leaf=0.0353404246
						58:leaf=0.0384832323
					34:[f1687<-9.53674316e-07] yes=59,no=60,missing=59
						59:leaf=0.00516666612
						60:leaf=0.0535924658
				18:[f590<-9.53674316e-07] yes=35,no=36,missing=35
					35:leaf=0.00947439205
					36:leaf=0.0533794761
		4:[f99679<-9.53674316e-07] yes=9,no=10,missing=9
			9:[f99677<-9.53674316e-07] yes=19,no=20,missing=19
				19:[f99676<-9.53674316e-07] yes=37,no=38,missing=37
					37:[f99671<-9.53674316e-07] yes=61,no=62,missing=61
						61:[f99666<-9.53674316e-07] yes=87,no=88,missing=87
							87:[f99681<-9.53674316e-07] yes=113,no=114,missing=113
								113:[f136<-9.53674316e-07] yes=137,no=138,missing=137
									137:[f99683<-9.53674316e-07] yes=151,no=152,missing=151
										151:[f99682<-9.53674316e-07] yes=171,no=172,missing=171
											171:[f22<-9.53674316e-07] yes=191,no=192,missing=191
												191:[f99670<-9.53674316e-07] yes=211,no=212,missing=211
													211:leaf=0.0730464831
													212:[f834<-9.53674316e-07] yes=229,no=230,missing=229
														229:leaf=0.00927664153
														230:leaf=0.0495650992
												192:leaf=0.00398970628
											172:[f439<-9.53674316e-07] yes=193,no=194,missing=193
												193:leaf=-0.0141468644
												194:leaf=0.0369339883
										152:[f379<-9.53674316e-07] yes=173,no=174,missing=173
											173:leaf=0.0498466901
											174:[f834<-9.53674316e-07] yes=195,no=196,missing=195
												195:leaf=0.0134148691
												196:[f46<-9.53674316e-07] yes=213,no=214,missing=213
													213:leaf=-0.0129086757
													214:leaf=0.00784878153
									138:[f99678<-9.53674316e-07] yes=153,no=154,missing=153
										153:[f99675<-9.53674316e-07] yes=175,no=176,missing=175
											175:[f99684<-9.53674316e-07] yes=197,no=198,missing=197
												197:[f9<-9.53674316e-07] yes=215,no=216,missing=215
													215:leaf=0.0154689923
													216:leaf=0.0617757104
												198:leaf=-0.00469130883
											176:leaf=-0.0214783773
										154:leaf=-0.0212240051
								114:[f1097<-9.53674316e-07] yes=139,no=140,missing=139
									139:[f300<-9.53674316e-07] yes=155,no=156,missing=155
										155:leaf=-0.0144162904
										156:leaf=-0.00335291051
									140:leaf=0.0265433975
							88:leaf=-0.0324685164
						62:[f136<-9.53674316e-07] yes=89,no=90,missing=89
							89:[f508<-9.53674316e-07] yes=115,no=116,missing=115
								115:leaf=-0.0327445418
								116:leaf=-0.0119850012
							90:leaf=0.00151571911
					38:[f282<-9.53674316e-07] yes=63,no=64,missing=63
						63:[f1005<-9.53674316e-07] yes=91,no=92,missing=91
							91:leaf=-0.04035905
							92:leaf=-0.0116516501
						64:leaf=0.0511676185
				20:[f1761<-9.53674316e-07] yes=39,no=40,missing=39
					39:leaf=-0.0360484645
					40:leaf=-0.00497304276
			10:[f282<-9.53674316e-07] yes=21,no=22,missing=21
				21:leaf=-0.0401104726
				22:leaf=-0.00853479933
	2:[f9808<-9.53674316e-07] yes=5,no=6,missing=5
		5:[f4812<-9.53674316e-07] yes=11,no=12,missing=11
			11:[f99666<-9.53674316e-07] yes=23,no=24,missing=23
				23:[f99676<-9.53674316e-07] yes=41,no=42,missing=41
					41:[f99678<-9.53674316e-07] yes=65,no=66,missing=65
						65:[f99675<-9.53674316e-07] yes=93,no=94,missing=93
							93:[f99683<-9.53674316e-07] yes=117,no=118,missing=117
								117:[f12505<-9.53674316e-07] yes=141,no=142,missing=141
									141:[f99670<-9.53674316e-07] yes=157,no=158,missing=157
										157:[f99684<-9.53674316e-07] yes=177,no=178,missing=177
											177:[f99677<-9.53674316e-07] yes=199,no=200,missing=199
												199:[f99679<-9.53674316e-07] yes=217,no=218,missing=217
													217:[f99668<-9.53674316e-07] yes=231,no=232,missing=231
														231:[f290<-9.53674316e-07] yes=243,no=244,missing=243
															243:[f7607<-9.53674316e-07] yes=259,no=260,missing=259
																259:leaf=0.0428960957
																260:leaf=0.00927072577
															244:[f99681<-9.53674316e-07] yes=261,no=262,missing=261
																261:leaf=0.0315505676
																262:leaf=0.0129694724
														232:[f21527<-9.53674316e-07] yes=245,no=246,missing=245
															245:[f31298<-9.53674316e-07] yes=263,no=264,missing=263
																263:leaf=0.0490822345
																264:leaf=0.0197776929
															246:leaf=-0.0102070589
													218:[f14588<-9.53674316e-07] yes=233,no=234,missing=233
														233:leaf=-0.0196889341
														234:[f97708<-9.53674316e-07] yes=247,no=248,missing=247
															247:[f5<-9.53674316e-07] yes=265,no=266,missing=265
																265:leaf=0.03315828
																266:leaf=-0.0156599265
															248:[f3258<-9.53674316e-07] yes=267,no=268,missing=267
																267:leaf=0.0468850769
																268:leaf=0.0258582663
												200:[f14588<-9.53674316e-07] yes=219,no=220,missing=219
													219:leaf=-0.0156424511
													220:[f834<-9.53674316e-07] yes=235,no=236,missing=235
														235:[f51<-9.53674316e-07] yes=249,no=250,missing=249
															249:leaf=0.055208683
															250:[f81<-9.53674316e-07] yes=269,no=270,missing=269
																269:leaf=-0.0137372101
																270:leaf=0.023388382
														236:leaf=-0.00611991994
											178:[f5110<-9.53674316e-07] yes=201,no=202,missing=201
												201:[f6418<-9.53674316e-07] yes=221,no=222,missing=221
													221:leaf=0.0444326885
													222:[f31766<-9.53674316e-07] yes=237,no=238,missing=237
														237:[f231<-9.53674316e-07] yes=251,no=252,missing=251
															251:leaf=0.0290180556
															252:leaf=0.0160074271
														238:[f9<-9.53674316e-07] yes=253,no=254,missing=253
															253:leaf=-0.0143288495
															254:[f11938<-9.53674316e-07] yes=271,no=272,missing=271
																271:leaf=0.000316600257
																272:leaf=0.0107264873
												202:leaf=-0.0289326981
										158:[f97708<-9.53674316e-07] yes=179,no=180,missing=179
											179:leaf=0.0520211831
											180:[f42<-9.53674316e-07] yes=203,no=204,missing=203
												203:leaf=-0.0172295533
												204:[f231<-9.53674316e-07] yes=223,no=224,missing=223
													223:leaf=0.0213151667
													224:leaf=0.000537164568
									142:[f99671<-9.53674316e-07] yes=159,no=160,missing=159
										159:[f99679<-9.53674316e-07] yes=181,no=182,missing=181
											181:[f99677<-9.53674316e-07] yes=205,no=206,missing=205
												205:[f221<-9.53674316e-07] yes=225,no=226,missing=225
													225:leaf=0.0515167527
													226:[f233<-9.53674316e-07] yes=239,no=240,missing=239
														239:[f99682<-9.53674316e-07] yes=255,no=256,missing=255
															255:[f99684<-9.53674316e-07] yes=273,no=274,missing=273
																273:leaf=0.0261088479
																274:leaf=0.00982542895
															256:[f113<-9.53674316e-07] yes=275,no=276,missing=275
																275:leaf=-0.00819748361
																276:leaf=0.0333666094
														240:[f99684<-9.53674316e-07] yes=257,no=258,missing=257
															257:[f99682<-9.53674316e-07] yes=277,no=278,missing=277
																277:leaf=0.0108223371
																278:leaf=-0.0167266
															258:leaf=-0.0186540224
												206:[f1693<-9.53674316e-07] yes=227,no=228,missing=227
													227:leaf=-0.0359443687
													228:[f622<-9.53674316e-07] yes=241,no=242,missing=241
														241:leaf=0.0102388682
														242:leaf=-0.00107902312
											182:[f945<-9.53674316e-07] yes=207,no=208,missing=207
												207:leaf=-0.0365987755
												208:leaf=-0.00725133624
										160:[f4919<-9.53674316e-07] yes=183,no=184,missing=183
											183:leaf=-0.0355344266
											184:leaf=-0.00582019892
								118:[f32579<-9.53674316e-07] yes=143,no=144,missing=143
									143:[f4432<-9.53674316e-07] yes=161,no=162,missing=161
										161:[f329<-9.53674316e-07] yes=185,no=186,missing=185
											185:leaf=-0.0295411889
											186:[f1<-9.53674316e-07] yes=209,no=210,missing=209
												209:leaf=-0.0251883008
												210:leaf=-0.00221815892
										162:leaf=-0.0141927619
									144:[f508<-9.53674316e-07] yes=163,no=164,missing=163
										163:leaf=0.0619488619
										164:leaf=9.39867314e-05
							94:[f282<-9.53674316e-07] yes=119,no=120,missing=119
								119:leaf=0.0692529157
								120:leaf=0.0125466743
						66:[f22332<-9.53674316e-07] yes=95,no=96,missing=95
							95:leaf=0.0721574053
							96:leaf=-0.00751629472
					42:[f7751<-9.53674316e-07] yes=67,no=68,missing=67
						67:[f6501<-9.53674316e-07] yes=97,no=98,missing=97
							97:[f1212<-9.53674316e-07] yes=121,no=122,missing=121
								121:leaf=0.00437725382
								122:leaf=0.0520256981
							98:[f8271<-9.53674316e-07] yes=123,no=124,missing=123
								123:[f1558<-9.53674316e-07] yes=145,no=146,missing=145
									145:[f302<-9.53674316e-07] yes=165,no=166,missing=165
										165:leaf=0.0538467281
										166:[f11938<-9.53674316e-07] yes=187,no=188,missing=187
											187:leaf=0.0293800738
											188:leaf=0.00770450104
									146:leaf=-0.00730943261
								124:leaf=-0.00312909787
						68:leaf=0.0108033782
				24:[f1079<-9.53674316e-07] yes=43,no=44,missing=43
					43:[f29721<-9.53674316e-07] yes=69,no=70,missing=69
						69:leaf=0.000509676
						70:leaf=-0.0344421193
					44:leaf=0.0208681077
			12:[f9552<-9.53674316e-07] yes=25,no=26,missing=25
				25:[f11307<-9.53674316e-07] yes=45,no=46,missing=45
					45:[f7850<-9.53674316e-07] yes=71,no=72,missing=71
						71:[f5<-9.53674316e-07] yes=99,no=100,missing=99
							99:leaf=0.00226611318
							100:leaf=0.0274528973
						72:[f99682<-9.53674316e-07] yes=101,no=102,missing=101
							101:[f99668<-9.53674316e-07] yes=125,no=126,missing=125
								125:leaf=-0.0377974883
								126:leaf=-0.012316701
							102:leaf=0.00574357901
					46:leaf=0.0487672016
				26:[f4097<-9.53674316e-07] yes=47,no=48,missing=47
					47:leaf=-0.0304438043
					48:[f30<-9.53674316e-07] yes=73,no=74,missing=73
						73:leaf=-0.0132563235
						74:[f1<-9.53674316e-07] yes=103,no=104,missing=103
							103:leaf=0.06601917
							104:leaf=0.0202443991
		6:[f99676<-9.53674316e-07] yes=13,no=14,missing=13
			13:[f99682<-9.53674316e-07] yes=27,no=28,missing=27
				27:[f1565<-9.53674316e-07] yes=49,no=50,missing=49
					49:[f20<-9.53674316e-07] yes=75,no=76,missing=75
						75:leaf=0.004426884
						76:[f676<-9.53674316e-07] yes=105,no=106,missing=105
							105:leaf=0.0631597787
							106:[f9<-9.53674316e-07] yes=127,no=128,missing=127
								127:leaf=0.0692514554
								128:leaf=-0.025723448
					50:leaf=-0.00217859074
				28:[f676<-9.53674316e-07] yes=51,no=52,missing=51
					51:[f11886<-9.53674316e-07] yes=77,no=78,missing=77
						77:leaf=-0.0335305631
						78:leaf=-0.0199828837
					52:leaf=0.0320499055
			14:leaf=-0.0363652408
booster[9]:
0:[f6828<-9.53674316e-07] yes=1,no=2,missing=1
	1:[f396<-9.53674316e-07] yes=3,no=4,missing=3
		3:[f99682<-9.53674316e-07] yes=7,no=8,missing=7
			7:[f99676<-9.53674316e-07] yes=15,no=16,missing=15
				15:[f71<-9.53674316e-07] yes=29,no=30,missing=29
					29:[f22043<-9.53674316e-07] yes=53,no=54,missing=53
						53:[f99670<-9.53674316e-07] yes=77,no=78,missing=77
							77:leaf=0.0671875328
							78:[f9978<-9.53674316e-07] yes=103,no=104,missing=103
								103:[f7338<-9.53674316e-07] yes=123,no=124,missing=123
									123:leaf=0.0557813309
									124:leaf=0.0149273938
								104:leaf=-0.0037136178
						54:[f99683<-9.53674316e-07] yes=79,no=80,missing=79
							79:leaf=0.0515200533
							80:leaf=-0.0133391675
					30:leaf=0.0088761393
				16:[f12738<-9.53674316e-07] yes=31,no=32,missing=31
					31:[f7443<-9.53674316e-07] yes=55,no=56,missing=55
						55:leaf=0.0578319617
						56:[f5<-9.53674316e-07] yes=81,no=82,missing=81
							81:leaf=0.025562305
							82:leaf=0.00529387686
					32:leaf=-0.0309066605
			8:[f2190<-9.53674316e-07] yes=17,no=18,missing=17
				17:[f4564<-9.53674316e-07] yes=33,no=34,missing=33
					33:[f12387<-9.53674316e-07] yes=57,no=58,missing=57
						57:[f5253<-9.53674316e-07] yes=83,no=84,missing=83
							83:leaf=0.0567836501
							84:leaf=0.0149661312
						58:leaf=0.00911786593
					34:leaf=-0.0112256603
				18:leaf=-0.021430647
		4:[f99670<-9.53674316e-07] yes=9,no=10,missing=9
			9:[f99684<-9.53674316e-07] yes=19,no=20,missing=19
				19:[f99668<-9.53674316e-07] yes=35,no=36,missing=35
					35:[f99682<-9.53674316e-07] yes=59,no=60,missing=59
						59:[f440<-9.53674316e-07] yes=85,no=86,missing=85
							85:[f99678<-9.53674316e-07] yes=105,no=106,missing=105
								105:[f99683<-9.53674316e-07] yes=125,no=126,missing=125
									125:[f99675<-9.53674316e-07] yes=143,no=144,missing=143
										143:[f5725<-9.53674316e-07] yes=163,no=164,missing=163
											163:leaf=0.0586069264
											164:leaf=0.0251539163
										144:[f5<-9.53674316e-07] yes=165,no=166,missing=165
											165:leaf=-0.0232125744
											166:leaf=0.0438227616
									126:[f4875<-9.53674316e-07] yes=145,no=146,missing=145
										145:leaf=-0.0241445601
										146:[f834<-9.53674316e-07] yes=167,no=168,missing=167
											167:leaf=0.0118383281
											168:leaf=0.0395048745
								106:[f290<-9.53674316e-07] yes=127,no=128,missing=127
									127:leaf=-0.0290932823
									128:leaf=0.0490708053
							86:[f99676<-9.53674316e-07] yes=107,no=108,missing=107
								107:[f655<-9.53674316e-07] yes=129,no=130,missing=129
									129:leaf=-0.0249251053
									130:[f99683<-9.53674316e-07] yes=147,no=148,missing=147
										147:leaf=0.0347625054
										148:leaf=-0.0160947684
								108:leaf=-0.026840046
						60:[f439<-9.53674316e-07] yes=87,no=88,missing=87
							87:leaf=0.040905796
							88:[f379<-9.53674316e-07] yes=109,no=110,missing=109
								109:leaf=-0.0242510047
								110:[f9<-9.53674316e-07] yes=131,no=132,missing=131
									131:leaf=0.00515627163
									132:[f834<-9.53674316e-07] yes=149,no=150,missing=149
										149:leaf=0.00515627163
										150:leaf=-0.00169276679
					36:leaf=-0.0305231251
				20:[f6612<-9.53674316e-07] yes=37,no=38,missing=37
					37:leaf=-0.0268961228
					38:leaf=0.0206507575
			10:[f834<-9.53674316e-07] yes=21,no=22,missing=21
				21:leaf=0.0130285993
				22:[f9257<-9.53674316e-07] yes=39,no=40,missing=39
					39:leaf=-0.0281005148
					40:[f1692<-9.53674316e-07] yes=61,no=62,missing=61
						61:leaf=0.00742626889
						62:leaf=-0.0146895675
	2:[f9808<-9.53674316e-07] yes=5,no=6,missing=5
		5:[f4812<-9.53674316e-07] yes=11,no=12,missing=11
			11:[f99676<-9.53674316e-07] yes=23,no=24,missing=23
				23:[f99678<-9.53674316e-07] yes=41,no=42,missing=41
					41:[f99675<-9.53674316e-07] yes=63,no=64,missing=63
						63:[f99666<-9.53674316e-07] yes=89,no=90,missing=89
							89:[f99669<-9.53674316e-07] yes=111,no=112,missing=111
								111:[f99683<-9.53674316e-07] yes=133,no=134,missing=133
									133:[f12505<-9.53674316e-07] yes=151,no=152,missing=151
										151:[f99670<-9.53674316e-07] yes=169,no=170,missing=169
											169:[f99672<-9.53674316e-07] yes=179,no=180,missing=179
												179:[f99674<-9.53674316e-07] yes=191,no=192,missing=191
													191:[f99667<-9.53674316e-07] yes=201,no=202,missing=201
														201:[f99673<-9.53674316e-07] yes=207,no=208,missing=207
															207:[f5110<-9.53674316e-07] yes=213,no=214,missing=213
																213:leaf=0.0126716485
																214:leaf=0.04474134
															208:leaf=-0.0339647643
														202:leaf=-0.0343007781
													192:leaf=-0.0348025821
												180:leaf=-0.0293487627
											170:[f2747<-9.53674316e-07] yes=181,no=182,missing=181
												181:leaf=-0.0246849768
												182:leaf=0.0360033922
										152:[f99670<-9.53674316e-07] yes=171,no=172,missing=171
											171:[f99668<-9.53674316e-07] yes=183,no=184,missing=183
												183:[f5812<-9.53674316e-07] yes=193,no=194,missing=193
													193:[f9754<-9.53674316e-07] yes=203,no=204,missing=203
														203:[f99682<-9.53674316e-07] yes=209,no=210,missing=209
															209:[f1578<-9.53674316e-07] yes=215,no=216,missing=215
																215:leaf=0.0382645093
																216:leaf=0.0562302247
															210:[f1079<-9.53674316e-07] yes=217,no=218,missing=217
																217:leaf=-0.013423563
																218:leaf=0.0462232307
														204:leaf=-0.0101495059
													194:leaf=-0.0117901675
												184:[f966<-9.53674316e-07] yes=195,no=196,missing=195
													195:leaf=-0.00760307116
													196:leaf=0.0202779975
											172:[f6552<-9.53674316e-07] yes=185,no=186,missing=185
												185:leaf=-0.0139694447
												186:leaf=0.0117026893
									134:[f32579<-9.53674316e-07] yes=153,no=154,missing=153
										153:leaf=0.0518764332
										154:[f508<-9.53674316e-07] yes=173,no=174,missing=173
											173:[f101<-9.53674316e-07] yes=187,no=188,missing=187
												187:leaf=-0.0262341294
												188:leaf=-0.00533906464
											174:leaf=0.021722246
								112:leaf=-0.0373691358
							90:[f26725<-9.53674316e-07] yes=113,no=114,missing=113
								113:leaf=-0.00534222648
								114:[f1478<-9.53674316e-07] yes=135,no=136,missing=135
									135:leaf=0.0651560351
									136:leaf=0.011204727
						64:[f1079<-9.53674316e-07] yes=91,no=92,missing=91
							91:leaf=-0.0393595174
							92:leaf=0.00350528839
					42:[f22332<-9.53674316e-07] yes=65,no=66,missing=65
						65:leaf=-0.0376581624
						66:leaf=0.0318575837
				24:[f9878<-9.53674316e-07] yes=43,no=44,missing=43
					43:[f6501<-9.53674316e-07] yes=67,no=68,missing=67
						67:[f1056<-9.53674316e-07] yes=93,no=94,missing=93
							93:leaf=-0.0348143056
							94:[f7870<-9.53674316e-07] yes=115,no=116,missing=115
								115:leaf=0.037085589
								116:[f1582<-9.53674316e-07] yes=137,no=138,missing=137
									137:[f21331<-9.53674316e-07] yes=155,no=156,missing=155
										155:leaf=-0.0234015994
										156:leaf=-0.010948292
									138:[f590<-9.53674316e-07] yes=157,no=158,missing=157
										157:leaf=0.0134952068
										158:leaf=-0.00762465876
						68:[f42<-9.53674316e-07] yes=95,no=96,missing=95
							95:[f8271<-9.53674316e-07] yes=117,no=118,missing=117
								117:leaf=-0.00847621635
								118:leaf=0.0186161604
							96:leaf=0.0140617425
					44:[f81<-9.53674316e-07] yes=69,no=70,missing=69
						69:leaf=-0.000785993238
						70:leaf=0.0259674024
			12:[f9552<-9.53674316e-07] yes=25,no=26,missing=25
				25:[f11307<-9.53674316e-07] yes=45,no=46,missing=45
					45:[f967<-9.53674316e-07] yes=71,no=72,missing=71
						71:[f99682<-9.53674316e-07] yes=97,no=98,missing=97
							97:leaf=0.0663664341
							98:leaf=0.0147748636
						72:leaf=0.000115200812
					46:leaf=-0.0211000554
				26:[f4097<-9.53674316e-07] yes=47,no=48,missing=47
					47:leaf=0.0561951511
					48:[f1<-9.53674316e-07] yes=73,no=74,missing=73
						73:leaf=-0.0334572308
						74:[f30<-9.53674316e-07] yes=99,no=100,missing=99
							99:leaf=0.0387023389
							100:leaf=0.00449260511
		6:[f99676<-9.53674316e-07] yes=13,no=14,missing=13
			13:[f99682<-9.53674316e-07] yes=27,no=28,missing=27
				27:[f99683<-9.53674316e-07] yes=49,no=50,missing=49
					49:[f1565<-9.53674316e-07] yes=75,no=76,missing=75
						75:[f676<-9.53674316e-07] yes=101,no=102,missing=101
							101:[f10277<-9.53674316e-07] yes=119,no=120,missing=119
								119:[f521<-9.53674316e-07] yes=139,no=140,missing=139
									139:leaf=-0.0405417681
									140:leaf=-0.0090999091
								120:[f9<-9.53674316e-07] yes=141,no=142,missing=141
									141:[f99681<-9.53674316e-07] yes=159,no=160,missing=159
										159:[f99666<-9.53674316e-07] yes=175,no=176,missing=175
											175:[f11886<-9.53674316e-07] yes=189,no=190,missing=189
												189:[f99679<-9.53674316e-07] yes=197,no=198,missing=197
													197:leaf=-0.0383942276
													198:leaf=-0.0113071585
												190:[f99675<-9.53674316e-07] yes=199,no=200,missing=199
													199:[f99679<-9.53674316e-07] yes=205,no=206,missing=205
														205:[f99677<-9.53674316e-07] yes=211,no=212,missing=211
															211:[f99668<-9.53674316e-07] yes=219,no=220,missing=219
																219:leaf=-0.0225753877
																220:leaf=-0.0117521835
															212:leaf=-0.0163826887
														206:leaf=-0.0154138934
													200:leaf=-0.0331852026
											176:leaf=-0.0334428176
										160:leaf=-0.00791380182
									142:[f99670<-9.53674316e-07] yes=161,no=162,missing=161
										161:[f99684<-9.53674316e-07] yes=177,no=178,missing=177
											177:leaf=-0.0192614067
											178:leaf=0.0131237647
										162:leaf=0.0299133789
							102:[f9<-9.53674316e-07] yes=121,no=122,missing=121
								121:leaf=-0.0347430333
								122:leaf=0.0573791601
						76:leaf=0.0320005491
					50:leaf=-0.0376417413
				28:[f676<-9.53674316e-07] yes=51,no=52,missing=51
					51:leaf=0.055853799
					52:leaf=-0.00618230086
			14:leaf=0.0662619174
booster[10]:
0:leaf=-0.0439338684
booster[11]:
0:[f6828<-9.53674316e-07] yes=1,no=2,missing=1
	1:[f396<-9.53674316e-07] yes=3,no=4,missing=3
		3:[f1681<-9.53674316e-07] yes=7,no=8,missing=7
			7:[f99682<-9.53674316e-07] yes=15,no=16,missing=15
				15:[f71<-9.53674316e-07] yes=29,no=30,missing=29
					29:[f941<-9.53674316e-07] yes=53,no=54,missing=53
						53:[f1636<-9.53674316e-07] yes=79,no=80,missing=79
							79:[f2944<-9.53674316e-07] yes=109,no=110,missing=109
								109:[f61<-9.53674316e-07] yes=129,no=130,missing=129
									129:[f90<-9.53674316e-07] yes=149,no=150,missing=149
										149:leaf=-0.0421372131
										150:leaf=-0.0120704714
									130:leaf=-0.01009004
								110:leaf=-0.0158495605
							80:leaf=-0.00385729503
						54:[f99670<-9.53674316e-07] yes=81,no=82,missing=81
							81:[f99676<-9.53674316e-07] yes=111,no=112,missing=111
								111:[f99668<-9.53674316e-07] yes=131,no=132,missing=131
									131:[f99684<-9.53674316e-07] yes=151,no=152,missing=151
										151:[f99672<-9.53674316e-07] yes=171,no=172,missing=171
											171:[f99681<-9.53674316e-07] yes=191,no=192,missing=191
												191:[f3057<-9.53674316e-07] yes=213,no=214,missing=213
													213:leaf=-0.0384531654
													214:leaf=-0.0128325969
												192:[f13766<-9.53674316e-07] yes=215,no=216,missing=215
													215:leaf=0.00781481713
													216:leaf=-0.0258829836
											172:leaf=-0.00555776898
										152:[f13766<-9.53674316e-07] yes=173,no=174,missing=173
											173:leaf=-0.0302785933
											174:leaf=0.0208601709
									132:[f585<-9.53674316e-07] yes=153,no=154,missing=153
										153:leaf=-0.0217985883
										154:leaf=0.00770400511
								112:[f14541<-9.53674316e-07] yes=133,no=134,missing=133
									133:leaf=0.0232371651
									134:leaf=-0.0245807394
							82:leaf=0.0140291043
					30:leaf=0.0111079225
				16:[f64<-9.53674316e-07] yes=31,no=32,missing=31
					31:[f11210<-9.53674316e-07] yes=55,no=56,missing=55
						55:leaf=0.0263303109
						56:[f15684<-9.53674316e-07] yes=83,no=84,missing=83
							83:leaf=0.00956931338
							84:leaf=-0.0231544599
					32:leaf=-0.0281881653
			8:[f99682<-9.53674316e-07] yes=17,no=18,missing=17
				17:[f99676<-9.53674316e-07] yes=33,no=34,missing=33
					33:[f99683<-9.53674316e-07] yes=57,no=58,missing=57
						57:[f99684<-9.53674316e-07] yes=85,no=86,missing=85
							85:[f99670<-9.53674316e-07] yes=113,no=114,missing=113
								113:[f99668<-9.53674316e-07] yes=135,no=136,missing=135
									135:leaf=-0.0339414924
									136:leaf=-0.0120113241
								114:leaf=0.0257447101
							86:leaf=0.0346010402
						58:leaf=0.0371680744
					34:[f1687<-9.53674316e-07] yes=59,no=60,missing=59
						59:leaf=0.0054597659
						60:leaf=0.0510370545
				18:[f590<-9.53674316e-07] yes=35,no=36,missing=35
					35:leaf=0.00902217533
					36:leaf=0.0509812608
		4:[f99679<-9.53674316e-07] yes=9,no=10,missing=9
			9:[f99677<-9.53674316e-07] yes=19,no=20,missing=19
				19:[f99676<-9.53674316e-07] yes=37,no=38,missing=37
					37:[f99671<-9.53674316e-07] yes=61,no=62,missing=61
						61:[f99666<-9.53674316e-07] yes=87,no=88,missing=87
							87:[f99681<-9.53674316e-07] yes=115,no=116,missing=115
								115:[f136<-9.53674316e-07] yes=137,no=138,missing=137
									137:[f99683<-9.53674316e-07] yes=155,no=156,missing=155
										155:[f99682<-9.53674316e-07] yes=175,no=176,missing=175
											175:[f22<-9.53674316e-07] yes=193,no=194,missing=193
												193:[f99670<-9.53674316e-07] yes=217,no=218,missing=217
													217:leaf=0.0681214929
													218:[f834<-9.53674316e-07] yes=235,no=236,missing=235
														235:leaf=0.00884135067
														236:leaf=0.0467389449
												194:leaf=0.00373768737
											176:[f439<-9.53674316e-07] yes=195,no=196,missing=195
												195:leaf=-0.0139005687
												196:leaf=0.0347866975
										156:[f379<-9.53674316e-07] yes=177,no=178,missing=177
											177:leaf=0.04749256
											178:[f834<-9.53674316e-07] yes=197,no=198,missing=197
												197:leaf=0.0128244068
												198:[f46<-9.53674316e-07] yes=219,no=220,missing=219
													219:leaf=-0.0126554109
													220:leaf=0.00769503508
									138:[f99678<-9.53674316e-07] yes=157,no=158,missing=157
										157:[f99675<-9.53674316e-07] yes=179,no=180,missing=179
											179:[f99684<-9.53674316e-07] yes=199,no=200,missing=199
												199:[f9<-9.53674316e-07] yes=221,no=222,missing=221
													221:leaf=0.0149603337
													222:leaf=0.0585805252
												200:leaf=-0.00498014549
											180:leaf=-0.0211237557
										158:leaf=-0.0208071824
								116:[f20<-9.53674316e-07] yes=139,no=140,missing=139
									139:leaf=0.025750529
									140:[f704<-9.53674316e-07] yes=159,no=160,missing=159
										159:leaf=-0.0141975181
										160:leaf=-0.00319438288
							88:leaf=-0.0318335928
						62:[f125<-9.53674316e-07] yes=89,no=90,missing=89
							89:[f508<-9.53674316e-07] yes=117,no=118,missing=117
								117:leaf=-0.0309613049
								118:leaf=-0.0126840863
							90:leaf=0.00172252383
					38:[f282<-9.53674316e-07] yes=63,no=64,missing=63
						63:[f1005<-9.53674316e-07] yes=91,no=92,missing=91
							91:leaf=-0.039507594
							92:leaf=-0.011130264
						64:leaf=0.048874367
				20:[f1761<-9.53674316e-07] yes=39,no=40,missing=39
					39:leaf=-0.0351967923
					40:leaf=-0.00461315038
			10:[f282<-9.53674316e-07] yes=21,no=22,missing=21
				21:leaf=-0.0392670408
				22:leaf=-0.00807994325
	2:[f9808<-9.53674316e-07] yes=5,no=6,missing=5
		5:[f4812<-9.53674316e-07] yes=11,no=12,missing=11
			11:[f99666<-9.53674316e-07] yes=23,no=24,missing=23
				23:[f99676<-9.53674316e-07] yes=41,no=42,missing=41
					41:[f99678<-9.53674316e-07] yes=65,no=66,missing=65
						65:[f99675<-9.53674316e-07] yes=93,no=94,missing=93
							93:[f99683<-9.53674316e-07] yes=119,no=120,missing=119
								119:[f12505<-9.53674316e-07] yes=141,no=142,missing=141
									141:[f99670<-9.53674316e-07] yes=161,no=162,missing=161
										161:[f99684<-9.53674316e-07] yes=181,no=182,missing=181
											181:[f99677<-9.53674316e-07] yes=201,no=202,missing=201
												201:[f99679<-9.53674316e-07] yes=223,no=224,missing=223
													223:[f99668<-9.53674316e-07] yes=237,no=238,missing=237
														237:[f290<-9.53674316e-07] yes=249,no=250,missing=249
															249:[f43049<-9.53674316e-07] yes=265,no=266,missing=265
																265:leaf=0.0151211545
																266:leaf=0.0406823121
															250:[f99681<-9.53674316e-07] yes=267,no=268,missing=267
																267:leaf=0.0297390316
																268:leaf=0.0122023402
														238:[f21527<-9.53674316e-07] yes=251,no=252,missing=251
															251:[f31298<-9.53674316e-07] yes=269,no=270,missing=269
																269:leaf=0.0475672036
																270:leaf=0.0186056886
															252:leaf=-0.0102649368
													224:[f14588<-9.53674316e-07] yes=239,no=240,missing=239
														239:leaf=-0.0195601583
														240:[f97708<-9.53674316e-07] yes=253,no=254,missing=253
															253:[f5<-9.53674316e-07] yes=271,no=272,missing=271
																271:leaf=0.0321982056
																272:leaf=-0.0154758543
															254:[f5409<-9.53674316e-07] yes=273,no=274,missing=273
																273:leaf=0.0243595783
																274:leaf=0.0457808636
												202:[f14588<-9.53674316e-07] yes=225,no=226,missing=225
													225:leaf=-0.0155874267
													226:[f834<-9.53674316e-07] yes=241,no=242,missing=241
														241:[f51<-9.53674316e-07] yes=255,no=256,missing=255
															255:leaf=0.0531976148
															256:[f81<-9.53674316e-07] yes=275,no=276,missing=275
																275:leaf=-0.013733834
																276:leaf=0.0220262501
														242:leaf=-0.00623819465
											182:[f5110<-9.53674316e-07] yes=203,no=204,missing=203
												203:[f6418<-9.53674316e-07] yes=227,no=228,missing=227
													227:leaf=0.0427043438
													228:[f31766<-9.53674316e-07] yes=243,no=244,missing=243
														243:[f231<-9.53674316e-07] yes=257,no=258,missing=257
															257:leaf=0.0276946239
															258:leaf=0.0149783399
														244:[f9<-9.53674316e-07] yes=259,no=260,missing=259
															259:leaf=-0.0143152568
															260:[f11938<-9.53674316e-07] yes=277,no=278,missing=277
																277:leaf=9.31652685e-05
																278:leaf=0.0102450568
												204:leaf=-0.0284696426
										162:[f97708<-9.53674316e-07] yes=183,no=184,missing=183
											183:leaf=0.0491914004
											184:[f42<-9.53674316e-07] yes=205,no=206,missing=205
												205:leaf=-0.0168784466
												206:[f231<-9.53674316e-07] yes=229,no=230,missing=229
													229:leaf=0.02069005
													230:leaf=0.000561152177
									142:[f99671<-9.53674316e-07] yes=163,no=164,missing=163
										163:[f99679<-9.53674316e-07] yes=185,no=186,missing=185
											185:[f99677<-9.53674316e-07] yes=207,no=208,missing=207
												207:[f221<-9.53674316e-07] yes=231,no=232,missing=231
													231:leaf=0.0489115641
													232:[f233<-9.53674316e-07] yes=245,no=246,missing=245
														245:[f99682<-9.53674316e-07] yes=261,no=262,missing=261
															261:[f99681<-9.53674316e-07] yes=279,no=280,missing=279
																279:leaf=0.024485996
																280:leaf=0.00757428026
															262:[f113<-9.53674316e-07] yes=281,no=282,missing=281
																281:leaf=-0.00802304223
																282:leaf=0.0323251598
														246:[f99684<-9.53674316e-07] yes=263,no=264,missing=263
															263:[f99682<-9.53674316e-07] yes=283,no=284,missing=283
																283:leaf=0.0103574507
																284:leaf=-0.0165061615
															264:leaf=-0.0183703899
												208:[f1693<-9.53674316e-07] yes=233,no=234,missing=233
													233:leaf=-0.0355103649
													234:[f622<-9.53674316e-07] yes=247,no=248,missing=247
														247:leaf=0.0100638866
														248:leaf=-0.00107253483
											186:[f945<-9.53674316e-07] yes=209,no=210,missing=209
												209:leaf=-0.0358987786
												210:leaf=-0.00676660193
										164:[f4919<-9.53674316e-07] yes=187,no=188,missing=187
											187:leaf=-0.0348017029
											188:leaf=-0.00535525475
								120:[f32579<-9.53674316e-07] yes=143,no=144,missing=143
									143:[f4432<-9.53674316e-07] yes=165,no=166,missing=165
										165:[f329<-9.53674316e-07] yes=189,no=190,missing=189
											189:leaf=-0.0288085863
											190:[f1<-9.53674316e-07] yes=211,no=212,missing=211
												211:leaf=-0.0247408841
												212:leaf=-0.00190785411
										166:leaf=-0.0135231335
									144:[f508<-9.53674316e-07] yes=167,no=168,missing=167
										167:leaf=0.0579097159
										168:leaf=-4.41586271e-05
							94:[f1079<-9.53674316e-07] yes=121,no=122,missing=121
								121:leaf=0.0677886382
								122:leaf=0.02385474
						66:[f22332<-9.53674316e-07] yes=95,no=96,missing=95
							95:leaf=0.0673666596
							96:leaf=-0.00741502363
					42:[f7751<-9.53674316e-07] yes=67,no=68,missing=67
						67:[f5110<-9.53674316e-07] yes=97,no=98,missing=97
							97:[f6501<-9.53674316e-07] yes=123,no=124,missing=123
								123:[f1212<-9.53674316e-07] yes=145,no=146,missing=145
									145:leaf=0.0040827808
									146:leaf=0.0497363172
								124:[f8271<-9.53674316e-07] yes=147,no=148,missing=147
									147:[f1558<-9.53674316e-07] yes=169,no=170,missing=169
										169:leaf=0.0363055952
										170:leaf=-0.00745855132
									148:leaf=-0.00327069988
							98:leaf=-0.0249765087
						68:leaf=0.0103107197
				24:[f1079<-9.53674316e-07] yes=43,no=44,missing=43
					43:[f29721<-9.53674316e-07] yes=69,no=70,missing=69
						69:leaf=0.000379662175
						70:leaf=-0.0335359126
					44:leaf=0.0199761074
			12:[f9552<-9.53674316e-07] yes=25,no=26,missing=25
				25:[f11307<-9.53674316e-07] yes=45,no=46,missing=45
					45:[f7850<-9.53674316e-07] yes=71,no=72,missing=71
						71:[f5<-9.53674316e-07] yes=99,no=100,missing=99
							99:leaf=0.00207311357
							100:leaf=0.0262092613
						72:[f99682<-9.53674316e-07] yes=101,no=102,missing=101
							101:[f99668<-9.53674316e-07] yes=125,no=126,missing=125
								125:leaf=-0.0368402116
								126:leaf=-0.0117028272
							102:leaf=0.00543390447
					46:leaf=0.0463703349
				26:[f4097<-9.53674316e-07] yes=47,no=48,missing=47
					47:leaf=-0.0297780726
					48:[f30<-9.53674316e-07] yes=73,no=74,missing=73
						73:leaf=-0.012975065
						74:[f1<-9.53674316e-07] yes=103,no=104,missing=103
							103:leaf=0.0619784482
							104:leaf=0.0193948932
		6:[f99676<-9.53674316e-07] yes=13,no=14,missing=13
			13:[f99682<-9.53674316e-07] yes=27,no=28,missing=27
				27:[f1565<-9.53674316e-07] yes=49,no=50,missing=49
					49:[f20<-9.53674316e-07] yes=75,no=76,missing=75
						75:leaf=0.00377599965
						76:[f676<-9.53674316e-07] yes=105,no=106,missing=105
							105:leaf=0.0588808432
							106:[f9<-9.53674316e-07] yes=127,no=128,missing=127
								127:leaf=0.0648664013
								128:leaf=-0.0250730366
					50:leaf=-0.00227342313
				28:[f676<-9.53674316e-07] yes=51,no=52,missing=51
					51:[f11886<-9.53674316e-07] yes=77,no=78,missing=77
						77:leaf=-0.0328754298
						78:[f455<-9.53674316e-07] yes=107,no=108,missing=107
							107:leaf=-0.0267735124
							108:leaf=-0.016466273
					52:leaf=0.0306478236
			14:leaf=-0.0354110859
booster[12]:
0:[f6828<-9.53674316e-07] yes=1,no=2,missing=1
	1:[f396<-9.53674316e-07] yes=3,no=4,missing=3
		3:[f1681<-9.53674316e-07] yes=7,no=8,missing=7
			7:[f17271<-9.53674316e-07] yes=15,no=16,missing=15
				15:[f71<-9.53674316e-07] yes=29,no=30,missing=29
					29:[f1636<-9.53674316e-07] yes=53,no=54,missing=53
						53:leaf=0.0623417348
						54:leaf=0.0185874552
					30:leaf=0.0185000617
				16:leaf=0.0192733277
			8:[f99682<-9.53674316e-07] yes=17,no=18,missing=17
				17:[f99676<-9.53674316e-07] yes=31,no=32,missing=31
					31:[f99683<-9.53674316e-07] yes=55,no=56,missing=55
						55:[f99684<-9.53674316e-07] yes=77,no=78,missing=77
							77:[f99670<-9.53674316e-07] yes=99,no=100,missing=99
								99:leaf=0.0603530779
								100:leaf=-0.00530290743
							78:leaf=-0.0112224091
						56:leaf=-0.0108441943
					32:[f1687<-9.53674316e-07] yes=57,no=58,missing=57
						57:leaf=0.0197415669
						58:leaf=-0.0276973732
				18:[f590<-9.53674316e-07] yes=33,no=34,missing=33
					33:leaf=0.0154190604
					34:leaf=-0.0277533568
		4:[f99670<-9.53674316e-07] yes=9,no=10,missing=9
			9:[f99684<-9.53674316e-07] yes=19,no=20,missing=19
				19:[f99668<-9.53674316e-07] yes=35,no=36,missing=35
					35:[f99682<-9.53674316e-07] yes=59,no=60,missing=59
						59:[f440<-9.53674316e-07] yes=79,no=80,missing=79
							79:[f99678<-9.53674316e-07] yes=101,no=102,missing=101
								101:[f99683<-9.53674316e-07] yes=117,no=118,missing=117
									117:[f99675<-9.53674316e-07] yes=133,no=134,missing=133
										133:[f5725<-9.53674316e-07] yes=151,no=152,missing=151
											151:leaf=0.0549816899
											152:leaf=0.0237250663
										134:[f5<-9.53674316e-07] yes=153,no=154,missing=153
											153:leaf=-0.0226847343
											154:leaf=0.0420473143
									118:[f4875<-9.53674316e-07] yes=135,no=136,missing=135
										135:leaf=-0.0236946344
										136:[f834<-9.53674316e-07] yes=155,no=156,missing=155
											155:leaf=0.0113209365
											156:[f422<-9.53674316e-07] yes=171,no=172,missing=171
												171:leaf=0.041985251
												172:leaf=0.0138637414
								102:[f290<-9.53674316e-07] yes=119,no=120,missing=119
									119:leaf=-0.0284674671
									120:leaf=0.0469543934
							80:[f99677<-9.53674316e-07] yes=103,no=104,missing=103
								103:[f99679<-9.53674316e-07] yes=121,no=122,missing=121
									121:[f99671<-9.53674316e-07] yes=137,no=138,missing=137
										137:[f30<-9.53674316e-07] yes=157,no=158,missing=157
											157:leaf=-0.0283459183
											158:leaf=-0.00746153202
										138:leaf=0.0250839368
									122:leaf=0.0282915402
								104:leaf=0.0335578956
						60:[f439<-9.53674316e-07] yes=81,no=82,missing=81
							81:leaf=0.039173156
							82:[f379<-9.53674316e-07] yes=105,no=106,missing=105
								105:leaf=-0.0238081533
								106:[f9<-9.53674316e-07] yes=123,no=124,missing=123
									123:leaf=0.00507628918
									124:[f834<-9.53674316e-07] yes=139,no=140,missing=139
										139:leaf=0.00507628918
										140:leaf=-0.0016172172
					36:leaf=-0.0298816003
				20:[f6612<-9.53674316e-07] yes=37,no=38,missing=37
					37:leaf=-0.0260849334
					38:leaf=0.0199866593
			10:[f834<-9.53674316e-07] yes=21,no=22,missing=21
				21:leaf=0.0125055825
				22:[f9257<-9.53674316e-07] yes=39,no=40,missing=39
					39:leaf=-0.027660124
					40:[f1692<-9.53674316e-07] yes=61,no=62,missing=61
						61:leaf=0.00730595039
						62:leaf=-0.0142012443
	2:[f9808<-9.53674316e-07] yes=5,no=6,missing=5
		5:[f4812<-9.53674316e-07] yes=11,no=12,missing=11
			11:[f99676<-9.53674316e-07] yes=23,no=24,missing=23
				23:[f99678<-9.53674316e-07] yes=41,no=42,missing=41
					41:[f99675<-9.53674316e-07] yes=63,no=64,missing=63
						63:[f99666<-9.53674316e-07] yes=83,no=84,missing=83
							83:[f99669<-9.53674316e-07] yes=107,no=108,missing=107
								107:[f99683<-9.53674316e-07] yes=125,no=126,missing=125
									125:[f12505<-9.53674316e-07] yes=141,no=142,missing=141
										141:[f99670<-9.53674316e-07] yes=159,no=160,missing=159
											159:[f99672<-9.53674316e-07] yes=173,no=174,missing=173
												173:[f99674<-9.53674316e-07] yes=187,no=188,missing=187
													187:[f99667<-9.53674316e-07] yes=197,no=198,missing=197
														197:[f99673<-9.53674316e-07] yes=205,no=206,missing=205
															205:[f5110<-9.53674316e-07] yes=211,no=212,missing=211
																211:leaf=0.0121086389
																212:leaf=0.0425948724
															206:leaf=-0.0334460884
														198:leaf=-0.0337750353
													188:leaf=-0.0342690535
												174:leaf=-0.0287862737
											160:[f2747<-9.53674316e-07] yes=175,no=176,missing=175
												175:leaf=-0.0240880698
												176:leaf=0.0338765904
										142:[f99670<-9.53674316e-07] yes=161,no=162,missing=161
											161:[f99668<-9.53674316e-07] yes=177,no=178,missing=177
												177:[f5812<-9.53674316e-07] yes=189,no=190,missing=189
													189:[f9754<-9.53674316e-07] yes=199,no=200,missing=199
														199:[f99682<-9.53674316e-07] yes=207,no=208,missing=207
															207:[f1578<-9.53674316e-07] yes=213,no=214,missing=213
																213:leaf=0.0360830165
																214:leaf=0.0528693311
															208:[f1079<-9.53674316e-07] yes=215,no=216,missing=215
																215:leaf=-0.0131016774
																216:leaf=0.0434925929
